{"learner":{"attributes":{"scikit_learn":"{\"_estimator_type\": \"regressor\"}"},"feature_names":["budget_corrected","popularity","runtime","season_encoded","budget_category","main_genre_label","vote_count"],"feature_types":["float","float","float","int","int","int","int"],"gradient_booster":{"model":{"gbtree_model_param":{"num_parallel_tree":"1","num_trees":"300"},"iteration_indptr":[0,1,2,3,4,5,6,7,8,9,10,11,12,13,14,15,16,17,18,19,20,21,22,23,24,25,26,27,28,29,30,31,32,33,34,35,36,37,38,39,40,41,42,43,44,45,46,47,48,49,50,51,52,53,54,55,56,57,58,59,60,61,62,63,64,65,66,67,68,69,70,71,72,73,74,75,76,77,78,79,80,81,82,83,84,85,86,87,88,89,90,91,92,93,94,95,96,97,98,99,100,101,102,103,104,105,106,107,108,109,110,111,112,113,114,115,116,117,118,119,120,121,122,123,124,125,126,127,128,129,130,131,132,133,134,135,136,137,138,139,140,141,142,143,144,145,146,147,148,149,150,151,152,153,154,155,156,157,158,159,160,161,162,163,164,165,166,167,168,169,170,171,172,173,174,175,176,177,178,179,180,181,182,183,184,185,186,187,188,189,190,191,192,193,194,195,196,197,198,199,200,201,202,203,204,205,206,207,208,209,210,211,212,213,214,215,216,217,218,219,220,221,222,223,224,225,226,227,228,229,230,231,232,233,234,235,236,237,238,239,240,241,242,243,244,245,246,247,248,249,250,251,252,253,254,255,256,257,258,259,260,261,262,263,264,265,266,267,268,269,270,271,272,273,274,275,276,277,278,279,280,281,282,283,284,285,286,287,288,289,290,291,292,293,294,295,296,297,298,299,300],"tree_info":[0,0,0,0,0,0,0,0,0,0,0,0,0,0,0,0,0,0,0,0,0,0,0,0,0,0,0,0,0,0,0,0,0,0,0,0,0,0,0,0,0,0,0,0,0,0,0,0,0,0,0,0,0,0,0,0,0,0,0,0,0,0,0,0,0,0,0,0,0,0,0,0,0,0,0,0,0,0,0,0,0,0,0,0,0,0,0,0,0,0,0,0,0,0,0,0,0,0,0,0,0,0,0,0,0,0,0,0,0,0,0,0,0,0,0,0,0,0,0,0,0,0,0,0,0,0,0,0,0,0,0,0,0,0,0,0,0,0,0,0,0,0,0,0,0,0,0,0,0,0,0,0,0,0,0,0,0,0,0,0,0,0,0,0,0,0,0,0,0,0,0,0,0,0,0,0,0,0,0,0,0,0,0,0,0,0,0,0,0,0,0,0,0,0,0,0,0,0,0,0,0,0,0,0,0,0,0,0,0,0,0,0,0,0,0,0,0,0,0,0,0,0,0,0,0,0,0,0,0,0,0,0,0,0,0,0,0,0,0,0,0,0,0,0,0,0,0,0,0,0,0,0,0,0,0,0,0,0,0,0,0,0,0,0,0,0,0,0,0,0,0,0,0,0,0,0,0,0,0,0,0,0,0,0,0,0,0,0,0,0,0,0,0,0,0,0,0,0,0,0],"trees":[{"base_weights":[3.9780338E-7,-5.956182E1,4.8305014E2,-1.2641037E2,5.2933517E1,3.4671582E2,8.09163E2,-1.5544368E1,-9.096853E0,4.3645735E0,4.4892462E2,2.9324796E0,4.254632E1,9.79156E0,8.842025E1],"categories":[],"categories_nodes":[],"categories_segments":[],"categories_sizes":[],"default_left":[0,0,0,0,0,0,0,0,0,0,0,0,0,0,0],"id":0,"left_children":[1,3,5,7,9,11,13,-1,-1,-1,-1,-1,-1,-1,-1],"loss_changes":[8.335059E7,1.9401158E7,1.3857848E7,1.65077E6,3.944183E7,5.6361E6,4.87698E6,0E0,0E0,0E0,0E0,0E0,0E0,0E0,0E0],"parents":[2147483647,0,0,1,1,2,2,3,3,4,4,5,5,6,6],"right_children":[2,4,6,8,10,12,14,-1,-1,-1,-1,-1,-1,-1,-1],"split_conditions":[1.914E3,4.04E2,4.347E3,2.9592E1,2.38E2,3.1758062E1,4.5484287E1,-1.5544368E1,-9.096853E0,4.3645735E0,4.4892462E2,2.9324796E0,4.254632E1,9.79156E0,8.842025E1],"split_indices":[6,6,6,0,2,0,0,0,0,0,0,0,0,0,0],"split_type":[0,0,0,0,0,0,0,0,0,0,0,0,0,0,0],"sum_hessian":[2.895E3,2.578E3,3.17E2,1.617E3,9.61E2,2.25E2,9.2E1,8.87E2,7.3E2,9.6E2,1E0,4.5E1,1.8E2,9E0,8.3E1],"tree_param":{"num_deleted":"0","num_feature":"7","num_nodes":"15","size_leaf_vector":"1"}},{"base_weights":[1.9762774E-1,-5.460706E1,4.2651108E2,-1.0750222E2,5.923322E1,3.0640125E2,7.293028E2,-1.3400123E1,-6.0054007E0,4.88274E0,4.2647842E2,2.0289816E1,5.045134E1,4.857391E0,7.927999E1],"categories":[],"categories_nodes":[],"categories_segments":[],"categories_sizes":[],"default_left":[0,0,0,0,0,0,0,0,0,0,0,0,0,0,0],"id":1,"left_children":[1,3,5,7,9,11,13,-1,-1,-1,-1,-1,-1,-1,-1],"loss_changes":[6.768537E7,1.5463816E7,1.1778068E7,2.196052E6,3.5457948E7,4.777878E6,3.981356E6,0E0,0E0,0E0,0E0,0E0,0E0,0E0,0E0],"parents":[2147483647,0,0,1,1,2,2,3,3,4,4,5,5,6,6],"right_children":[2,4,6,8,10,12,14,-1,-1,-1,-1,-1,-1,-1,-1],"split_conditions":[1.862E3,4.87E2,4.347E3,2.04E2,2.38E2,1.4952425E2,4.1769382E1,-1.3400123E1,-6.0054007E0,4.88274E0,4.2647842E2,2.0289816E1,5.045134E1,4.857391E0,7.927999E1],"split_indices":[6,6,6,6,2,0,0,0,0,0,0,0,0,0,0],"split_type":[0,0,0,0,0,0,0,0,0,0,0,0,0,0,0],"sum_hessian":[2.895E3,2.566E3,3.29E2,1.752E3,8.14E2,2.37E2,9.2E1,1.123E3,6.29E2,8.13E2,1E0,1.57E2,8E1,8E0,8.4E1],"tree_param":{"num_deleted":"0","num_feature":"7","num_nodes":"15","size_leaf_vector":"1"}},{"base_weights":[3.735947E-1,-5.713611E1,3.386008E2,-1.0343235E2,3.0915342E1,3.2011392E2,4.051545E2,-1.2741168E1,-6.6018825E0,-1.6568407E0,1.925434E1,2.282015E1,6.545906E1],"categories":[],"categories_nodes":[],"categories_segments":[],"categories_sizes":[],"default_left":[0,0,0,0,0,0,0,0,0,0,0,0,0],"id":2,"left_children":[1,3,5,7,9,11,-1,-1,-1,-1,-1,-1,-1],"loss_changes":[5.635045E7,1.0096492E7,2.7600792E7,1.447666E6,6.5573895E6,1.27625E7,0E0,0E0,0E0,0E0,0E0,0E0,0E0],"parents":[2147483647,0,0,1,1,2,2,3,3,4,4,5,5],"right_children":[2,4,6,8,10,12,-1,-1,-1,-1,-1,-1,-1],"split_conditions":[4.3926994E1,5.148813E1,2.38E2,2.53E2,7.99E2,4.347E3,4.051545E2,-1.2741168E1,-6.6018825E0,-1.6568407E0,1.925434E1,2.282015E1,6.545906E1],"split_indices":[1,0,2,6,6,6,0,0,0,0,0,0,0],"split_type":[0,0,0,0,0,0,0,0,0,0,0,0,0],"sum_hessian":[2.895E3,2.475E3,4.2E2,1.622E3,8.53E2,4.19E2,1E0,9.87E2,6.35E2,6.6E2,1.93E2,3.3E2,8.9E1],"tree_param":{"num_deleted":"0","num_feature":"7","num_nodes":"13","size_leaf_vector":"1"}},{"base_weights":[5.060173E-1,-4.3764793E1,3.595435E2,-4.6671562E1,1.4619744E3,-6.640174E0,4.278861E2,-9.18994E0,3.50653E0,-9.701586E0,3.8489676E2,-1.2718726E1,5.2100987E0,3.288618E1,6.266988E1],"categories":[],"categories_nodes":[],"categories_segments":[],"categories_sizes":[],"default_left":[0,0,0,0,0,0,0,0,0,0,0,0,0,0,0],"id":3,"left_children":[1,3,5,7,9,11,13,-1,-1,-1,-1,-1,-1,-1,-1],"loss_changes":[4.6047308E7,1.1356094E7,7.961096E6,9.522438E6,1.8979904E7,3.677615E5,5.070096E6,0E0,0E0,0E0,0E0,0E0,0E0,0E0,0E0],"parents":[2147483647,0,0,1,1,2,2,3,3,4,4,5,5,6,6],"right_children":[2,4,6,8,10,12,14,-1,-1,-1,-1,-1,-1,-1,-1],"split_conditions":[1.914E3,2.38E2,3.1758062E1,5.148813E1,5.502362E1,1.3301082E1,4.347E3,-9.18994E0,3.50653E0,-9.701586E0,3.8489676E2,-1.2718726E1,5.2100987E0,3.288618E1,6.266988E1],"split_indices":[6,2,0,0,0,0,6,0,0,0,0,0,0,0,0],"split_type":[0,0,0,0,0,0,0,0,0,0,0,0,0,0,0],"sum_hessian":[2.895E3,2.578E3,3.17E2,2.574E3,4E0,5E1,2.67E2,1.657E3,9.17E2,3E0,1E0,1.6E1,3.4E1,1.8E2,8.7E1],"tree_param":{"num_deleted":"0","num_feature":"7","num_nodes":"15","size_leaf_vector":"1"}},{"base_weights":[6.134125E-1,-6.399907E1,2.116736E2,-9.672183E1,-1.2116693E1,2.0119962E2,3.6565192E2,-1.2191881E1,-8.340838E0,-6.2273593E0,4.640916E0,1.1359397E1,4.2397636E1],"categories":[],"categories_nodes":[],"categories_segments":[],"categories_sizes":[],"default_left":[0,0,0,0,0,0,0,0,0,0,0,0,0],"id":4,"left_children":[1,3,5,7,9,11,-1,-1,-1,-1,-1,-1,-1],"loss_changes":[3.9506656E7,3.764404E6,2.3763496E7,4.46053E5,2.5244632E6,1.3184024E7,0E0,0E0,0E0,0E0,0E0,0E0,0E0],"parents":[2147483647,0,0,1,1,2,2,3,3,4,4,5,5],"right_children":[2,4,6,8,10,12,-1,-1,-1,-1,-1,-1,-1],"split_conditions":[9.41E2,2.88E2,2.38E2,1.3549508E1,4.9679672E1,1.4952425E2,3.6565192E2,-1.2191881E1,-8.340838E0,-6.2273593E0,4.640916E0,1.1359397E1,4.2397636E1],"split_indices":[6,6,2,0,0,0,0,0,0,0,0,0,0],"split_type":[0,0,0,0,0,0,0,0,0,0,0,0,0],"sum_hessian":[2.895E3,2.217E3,6.78E2,1.359E3,8.58E2,6.77E2,1E0,4.67E2,8.92E2,4.62E2,3.96E2,4.87E2,1.9E2],"tree_param":{"num_deleted":"0","num_feature":"7","num_nodes":"13","size_leaf_vector":"1"}},{"base_weights":[6.892561E-1,-4.3053524E1,2.579492E2,-7.9264694E1,2.5203442E1,2.4202196E2,3.4736935E2,-9.443867E0,-4.685966E0,-5.7139535E0,8.645023E0,1.5694597E1,4.636267E1],"categories":[],"categories_nodes":[],"categories_segments":[],"categories_sizes":[],"default_left":[0,0,0,0,0,0,0,0,0,0,0,0,0],"id":5,"left_children":[1,3,5,7,9,11,-1,-1,-1,-1,-1,-1,-1],"loss_changes":[3.2600558E7,6.121839E6,2.0722026E7,7.91168E5,4.3370855E6,7.845598E6,0E0,0E0,0E0,0E0,0E0,0E0,0E0],"parents":[2147483647,0,0,1,1,2,2,3,3,4,4,5,5],"right_children":[2,4,6,8,10,12,-1,-1,-1,-1,-1,-1,-1],"split_conditions":[4.3926994E1,4.04E2,2.38E2,1.96E2,4.3127354E1,7.730019E1,3.4736935E2,-9.443867E0,-4.685966E0,-5.7139535E0,8.645023E0,1.5694597E1,4.636267E1],"split_indices":[1,6,2,6,0,1,0,0,0,0,0,0,0],"split_type":[0,0,0,0,0,0,0,0,0,0,0,0,0],"sum_hessian":[2.895E3,2.475E3,4.2E2,1.617E3,8.58E2,4.19E2,1E0,1.1E3,5.17E2,3.66E2,4.92E2,3.04E2,1.15E2],"tree_param":{"num_deleted":"0","num_feature":"7","num_nodes":"13","size_leaf_vector":"1"}},{"base_weights":[7.578381E-1,-5.2414036E1,1.7444629E2,-7.777878E1,-7.882041E0,1.6496906E2,3.3000085E2,-1.0120931E1,-6.5539546E0,-5.264758E0,4.0721083E0,9.605961E0,3.8746304E1],"categories":[],"categories_nodes":[],"categories_segments":[],"categories_sizes":[],"default_left":[0,0,0,0,0,0,0,0,0,0,0,0,0],"id":6,"left_children":[1,3,5,7,9,11,-1,-1,-1,-1,-1,-1,-1],"loss_changes":[2.6754688E7,2.504712E6,1.9568742E7,3.98575E5,1.7557942E6,1.0357832E7,0E0,0E0,0E0,0E0,0E0,0E0,0E0],"parents":[2147483647,0,0,1,1,2,2,3,3,4,4,5,5],"right_children":[2,4,6,8,10,12,-1,-1,-1,-1,-1,-1,-1],"split_conditions":[9.41E2,1.5639016E1,2.38E2,1.3549508E1,4.8135136E1,3.128E3,3.3000085E2,-1.0120931E1,-6.5539546E0,-5.264758E0,4.0721083E0,9.605961E0,3.8746304E1],"split_indices":[6,1,2,0,0,6,0,0,0,0,0,0,0],"split_type":[0,0,0,0,0,0,0,0,0,0,0,0,0],"sum_hessian":[2.895E3,2.217E3,6.78E2,1.412E3,8.05E2,6.77E2,1E0,4.82E2,9.3E2,4.19E2,3.86E2,5.18E2,1.59E2],"tree_param":{"num_deleted":"0","num_feature":"7","num_nodes":"13","size_leaf_vector":"1"}},{"base_weights":[8.065318E-1,-2.9954708E1,2.5027959E2,-3.2325153E1,1.1968147E3,-5.6388718E1,3.0770422E2,-6.4714136E0,2.3330536E0,-7.148568E0,3.1350082E2,-1.48227415E1,2.7726147E-1,2.5580746E1,5.733081E1],"categories":[],"categories_nodes":[],"categories_segments":[],"categories_sizes":[],"default_left":[0,0,0,0,0,0,0,0,0,0,0,0,0,0,0],"id":7,"left_children":[1,3,5,7,9,11,13,-1,-1,-1,-1,-1,-1,-1,-1],"loss_changes":[2.2231692E7,7.538387E6,5.61743E6,4.643285E6,1.2515165E7,2.7750925E5,3.547452E6,0E0,0E0,0E0,0E0,0E0,0E0,0E0,0E0],"parents":[2147483647,0,0,1,1,2,2,3,3,4,4,5,5,6,6],"right_children":[2,4,6,8,10,12,14,-1,-1,-1,-1,-1,-1,-1,-1],"split_conditions":[1.914E3,2.38E2,3.1758062E1,4.9679672E1,5.502362E1,1.6707752E1,1.08849625E2,-6.4714136E0,2.3330536E0,-7.148568E0,3.1350082E2,-1.48227415E1,2.7726147E-1,2.5580746E1,5.733081E1],"split_indices":[6,2,0,0,0,0,1,0,0,0,0,0,0,0,0],"split_type":[0,0,0,0,0,0,0,0,0,0,0,0,0,0,0],"sum_hessian":[2.895E3,2.578E3,3.17E2,2.574E3,4E0,5E1,2.67E2,1.627E3,9.47E2,3E0,1E0,1.9E1,3.1E1,2.25E2,4.2E1],"tree_param":{"num_deleted":"0","num_feature":"7","num_nodes":"15","size_leaf_vector":"1"}},{"base_weights":[8.5384166E-1,-4.3624928E1,1.4614554E2,-6.987365E1,-1.0515669E1,1.3757567E2,2.9782578E2,-7.7432427E0,-5.1532307E0,-3.012223E0,5.520417E0,6.8347917E0,3.1373047E1],"categories":[],"categories_nodes":[],"categories_segments":[],"categories_sizes":[],"default_left":[0,0,0,0,0,0,0,0,0,0,0,0,0],"id":8,"left_children":[1,3,5,7,9,11,-1,-1,-1,-1,-1,-1,-1],"loss_changes":[1.8721472E7,1.926875E6,1.6070156E7,1.675055E5,1.2670092E6,8.246633E6,0E0,0E0,0E0,0E0,0E0,0E0,0E0],"parents":[2147483647,0,0,1,1,2,2,3,3,4,4,5,5],"right_children":[2,4,6,8,10,12,-1,-1,-1,-1,-1,-1,-1],"split_conditions":[9.41E2,2.41E2,2.38E2,1.29E2,8.754233E1,1.4952425E2,2.9782578E2,-7.7432427E0,-5.1532307E0,-3.012223E0,5.520417E0,6.8347917E0,3.1373047E1],"split_indices":[6,6,2,6,0,0,0,0,0,0,0,0,0],"split_type":[0,0,0,0,0,0,0,0,0,0,0,0,0],"sum_hessian":[2.895E3,2.217E3,6.78E2,1.236E3,9.81E2,6.77E2,1E0,8.73E2,3.63E2,7.56E2,2.25E2,4.87E2,1.9E2],"tree_param":{"num_deleted":"0","num_feature":"7","num_nodes":"13","size_leaf_vector":"1"}},{"base_weights":[8.809035E-1,-2.002218E1,2.5903476E2,-2.2076557E1,1.0834844E3,9.228219E1,3.7425894E2,-5.1775246E0,3.401275E0,-6.0316825E0,2.8293448E2,4.347095E0,7.683944E1,2.8033453E1,5.06142E1],"categories":[],"categories_nodes":[],"categories_segments":[],"categories_sizes":[],"default_left":[0,0,0,0,0,0,0,0,0,0,0,0,0,0,0],"id":9,"left_children":[1,3,5,7,9,11,13,-1,-1,-1,-1,-1,-1,-1,-1],"loss_changes":[1.5632615E7,6.099527E6,4.134885E6,4.459385E6,1.0155242E7,2.936766E6,1.443652E6,0E0,0E0,0E0,0E0,0E0,0E0,0E0,0E0],"parents":[2147483647,0,0,1,1,2,2,3,3,4,4,5,5,6,6],"right_children":[2,4,6,8,10,12,14,-1,-1,-1,-1,-1,-1,-1,-1],"split_conditions":[2.542E3,2.38E2,9.298033E1,4.87E2,5.502362E1,5.996E3,1.33E2,-5.1775246E0,3.401275E0,-6.0316825E0,2.8293448E2,4.347095E0,7.683944E1,2.8033453E1,5.06142E1],"split_indices":[6,2,0,6,0,6,2,0,0,0,0,0,0,0,0],"split_type":[0,0,0,0,0,0,0,0,0,0,0,0,0,0,0],"sum_hessian":[2.895E3,2.679E3,2.16E2,2.675E3,4E0,8.9E1,1.27E2,1.749E3,9.26E2,3E0,1E0,8.4E1,5E0,7.6E1,5.1E1],"tree_param":{"num_deleted":"0","num_feature":"7","num_nodes":"15","size_leaf_vector":"1"}},{"base_weights":[9.430054E-1,-2.6839455E1,1.6433594E2,-4.1427017E1,5.7371426E1,1.519278E2,2.6878775E2,-6.2106643E0,-1.758852E0,1.8993222E0,1.5787867E1,7.786411E0,2.9949903E1],"categories":[],"categories_nodes":[],"categories_segments":[],"categories_sizes":[],"default_left":[0,0,0,0,0,0,0,0,0,0,0,0,0],"id":10,"left_children":[1,3,5,7,9,11,-1,-1,-1,-1,-1,-1,-1],"loss_changes":[1.315068E7,3.043973E6,1.2774181E7,1.0395695E6,1.4087686E6,4.56714E6,0E0,0E0,0E0,0E0,0E0,0E0,0E0],"parents":[2147483647,0,0,1,1,2,2,3,3,4,4,5,5],"right_children":[2,4,6,8,10,12,-1,-1,-1,-1,-1,-1,-1],"split_conditions":[4.3926994E1,9.7210915E1,2.38E2,2.9364561E1,8.17E2,1.6142265E2,2.6878775E2,-6.2106643E0,-1.758852E0,1.8993222E0,1.5787867E1,7.786411E0,2.9949903E1],"split_indices":[1,0,2,0,6,0,0,0,0,0,0,0,0],"split_type":[0,0,0,0,0,0,0,0,0,0,0,0,0],"sum_hessian":[2.895E3,2.475E3,4.2E2,2.11E3,3.65E2,4.19E2,1E0,1.129E3,9.81E2,2.65E2,1E2,2.8E2,1.39E2],"tree_param":{"num_deleted":"0","num_feature":"7","num_nodes":"13","size_leaf_vector":"1"}},{"base_weights":[9.5790386E-1,-2.3653086E1,1.554853E2,-2.5652338E1,9.7870465E2,-7.992297E1,1.9751021E2,-3.9942682E0,3.2902932E0,-5.3360972E0,2.5534837E2,8.540715E0,-1.0648992E1,1.6199512E1,4.3739292E1],"categories":[],"categories_nodes":[],"categories_segments":[],"categories_sizes":[],"default_left":[0,0,0,0,0,0,0,0,0,0,0,0,0,0,0],"id":11,"left_children":[1,3,5,7,9,11,13,-1,-1,-1,-1,-1,-1,-1,-1],"loss_changes":[1.1017375E7,5.033019E6,3.953204E6,2.0890676E6,8.2626325E6,2.770263E5,2.808722E6,0E0,0E0,0E0,0E0,0E0,0E0,0E0,0E0],"parents":[2147483647,0,0,1,1,2,2,3,3,4,4,5,5,6,6],"right_children":[2,4,6,8,10,12,14,-1,-1,-1,-1,-1,-1,-1,-1],"split_conditions":[1.573E3,2.38E2,2.76773E1,8.278373E1,5.502362E1,1E0,1.08849625E2,-3.9942682E0,3.2902932E0,-5.3360972E0,2.5534837E2,8.540715E0,-1.0648992E1,1.6199512E1,4.3739292E1],"split_indices":[6,2,0,0,0,3,1,0,0,0,0,0,0,0,0],"split_type":[0,0,0,0,0,0,0,0,0,0,0,0,0,0,0],"sum_hessian":[2.895E3,2.498E3,3.97E2,2.494E3,4E0,6E1,3.37E2,2.005E3,4.89E2,3E0,1E0,8E0,5.2E1,2.95E2,4.2E1],"tree_param":{"num_deleted":"0","num_feature":"7","num_nodes":"15","size_leaf_vector":"1"}},{"base_weights":[9.681676E-1,-1.268937E1,2.3459137E2,-1.44109E1,9.3083673E2,-1.04939445E2,2.81088E2,-3.4501266E0,4.558835E0,-4.9358897E0,2.4258096E2,-1.8023703E1,3.053653E0,1.12422485E2,2.6703543E1],"categories":[],"categories_nodes":[],"categories_segments":[],"categories_sizes":[],"default_left":[0,0,0,0,0,0,0,0,0,0,0,0,0,0,0],"id":12,"left_children":[1,3,5,7,9,11,13,-1,-1,-1,-1,-1,-1,-1,-1],"loss_changes":[9.243295E6,4.459146E6,2.555424E6,3.29595E6,7.446564E6,2.0952406E5,1.370396E6,0E0,0E0,0E0,0E0,0E0,0E0,0E0,0E0],"parents":[2147483647,0,0,1,1,2,2,3,3,4,4,5,5,6,6],"right_children":[2,4,6,8,10,12,14,-1,-1,-1,-1,-1,-1,-1,-1],"split_conditions":[3.128E3,2.38E2,3.4389763E1,2.8223164E1,5.502362E1,1.2E2,3.5689243E1,-3.4501266E0,4.558835E0,-4.9358897E0,2.4258096E2,-1.8023703E1,3.053653E0,1.12422485E2,2.6703543E1],"split_indices":[6,2,0,1,0,2,0,0,0,0,0,0,0,0,0],"split_type":[0,0,0,0,0,0,0,0,0,0,0,0,0,0,0],"sum_hessian":[2.895E3,2.736E3,1.59E2,2.732E3,4E0,1.9E1,1.4E2,2.047E3,6.85E2,3E0,1E0,1.2E1,7E0,1E0,1.39E2],"tree_param":{"num_deleted":"0","num_feature":"7","num_nodes":"15","size_leaf_vector":"1"}},{"base_weights":[9.966633E-1,-1.3591825E1,1.8116325E2,-1.5266255E1,8.8528204E2,7.973319E1,2.9686774E2,-4.192426E0,1.9715416E0,-4.565698E0,2.304519E2,-1.3156811E0,2.9773712E1,1.9673903E1,4.2734978E1],"categories":[],"categories_nodes":[],"categories_segments":[],"categories_sizes":[],"default_left":[0,0,0,0,0,0,0,0,0,0,0,0,0,0,0],"id":13,"left_children":[1,3,5,7,9,11,13,-1,-1,-1,-1,-1,-1,-1,-1],"loss_changes":[7.6141875E6,4.047189E6,2.523023E6,2.4963075E6,6.711333E6,2.3732122E6,1.235488E6,0E0,0E0,0E0,0E0,0E0,0E0,0E0,0E0],"parents":[2147483647,0,0,1,1,2,2,3,3,4,4,5,5,6,6],"right_children":[2,4,6,8,10,12,14,-1,-1,-1,-1,-1,-1,-1,-1],"split_conditions":[2.542E3,2.38E2,1.3963914E2,4.3127354E1,5.502362E1,3E0,1.33E2,-4.192426E0,1.9715416E0,-4.565698E0,2.304519E2,-1.3156811E0,2.9773712E1,1.9673903E1,4.2734978E1],"split_indices":[6,2,0,0,0,3,2,0,0,0,0,0,0,0,0],"split_type":[0,0,0,0,0,0,0,0,0,0,0,0,0,0,0],"sum_hessian":[2.895E3,2.679E3,2.16E2,2.675E3,4E0,1.16E2,1E2,1.518E3,1.157E3,3E0,1E0,8.2E1,3.4E1,5.8E1,4.2E1],"tree_param":{"num_deleted":"0","num_feature":"7","num_nodes":"15","size_leaf_vector":"1"}},{"base_weights":[1.0056083E0,-2.531215E1,8.6972885E1,-3.884529E1,9.475211E0,8.0643074E1,2.189293E2,-5.5152245E0,-2.6877751E0,-1.2401583E0,1.0400668E1,-1.7046318E0,1.3421042E1],"categories":[],"categories_nodes":[],"categories_segments":[],"categories_sizes":[],"default_left":[0,0,0,0,0,0,0,0,0,0,0,0,0],"id":14,"left_children":[1,3,5,7,9,11,-1,-1,-1,-1,-1,-1,-1],"loss_changes":[6.554303E6,1.04456325E6,8.8591E6,3.1017875E5,1.2876142E6,3.5502355E6,0E0,0E0,0E0,0E0,0E0,0E0,0E0],"parents":[2147483647,0,0,1,1,2,2,3,3,4,4,5,5],"right_children":[2,4,6,8,10,12,-1,-1,-1,-1,-1,-1,-1],"split_conditions":[9.41E2,1.15E2,2.38E2,1.35E2,2.5170218E1,5.3822456E1,2.189293E2,-5.5152245E0,-2.6877751E0,-1.2401583E0,1.0400668E1,-1.7046318E0,1.3421042E1],"split_indices":[6,2,2,6,1,0,0,0,0,0,0,0,0],"split_type":[0,0,0,0,0,0,0,0,0,0,0,0,0],"sum_hessian":[2.895E3,2.217E3,6.78E2,1.596E3,6.21E2,6.77E2,1E0,6.74E2,9.22E2,5.05E2,1.16E2,2.4E2,4.37E2],"tree_param":{"num_deleted":"0","num_feature":"7","num_nodes":"13","size_leaf_vector":"1"}},{"base_weights":[9.850218E-1,-8.047329E0,2.1751935E2,-9.497324E0,7.988893E2,1.2838413E3,1.8755019E2,-2.4893174E0,5.998613E0,-4.130259E0,2.0798283E2,1.8437964E2,8.196564E0,8.368071E0,3.3927723E1],"categories":[],"categories_nodes":[],"categories_segments":[],"categories_sizes":[],"default_left":[0,0,0,0,0,0,0,0,0,0,0,0,0,0,0],"id":15,"left_children":[1,3,5,7,9,11,13,-1,-1,-1,-1,-1,-1,-1,-1],"loss_changes":[5.6657875E6,3.2615072E6,3.4662025E6,2.9722078E6,5.4670755E6,1.867861E6,1.7682272E6,0E0,0E0,0E0,0E0,0E0,0E0,0E0,0E0],"parents":[2147483647,0,0,1,1,2,2,3,3,4,4,5,5,6,6],"right_children":[2,4,6,8,10,12,14,-1,-1,-1,-1,-1,-1,-1,-1],"split_conditions":[7.730019E1,2.38E2,8.4E1,9.7210915E1,5.502362E1,3.3179794E1,4.903E3,-2.4893174E0,5.998613E0,-4.130259E0,2.0798283E2,1.8437964E2,8.196564E0,8.368071E0,3.3927723E1],"split_indices":[1,2,2,0,0,0,6,0,0,0,0,0,0,0,0],"split_type":[0,0,0,0,0,0,0,0,0,0,0,0,0,0,0],"sum_hessian":[2.895E3,2.78E3,1.15E2,2.776E3,4E0,2E0,1.13E2,2.273E3,5.03E2,3E0,1E0,1E0,1E0,6.8E1,4.5E1],"tree_param":{"num_deleted":"0","num_feature":"7","num_nodes":"15","size_leaf_vector":"1"}},{"base_weights":[1.0392257E0,-7.244919E0,2.0702408E2,-8.621343E0,7.597709E2,1.23156456E2,3.2467856E2,-1.1654266E0,3.4027126E1,-3.8204896E0,1.975837E2,1.5257747E1,-8.339863E0,3.496539E1,-2.4975722E0],"categories":[],"categories_nodes":[],"categories_segments":[],"categories_sizes":[],"default_left":[0,0,0,0,0,0,0,0,0,0,0,0,0,0,0],"id":16,"left_children":[1,3,5,7,9,11,13,-1,-1,-1,-1,-1,-1,-1,-1],"loss_changes":[4.9432585E6,2.9467822E6,1.0651625E6,2.9467202E6,4.927443E6,4.1988775E5,4.10438E5,0E0,0E0,0E0,0E0,0E0,0E0,0E0,0E0],"parents":[2147483647,0,0,1,1,2,2,3,3,4,4,5,5,6,6],"right_children":[2,4,6,8,10,12,14,-1,-1,-1,-1,-1,-1,-1,-1],"split_conditions":[7E0,2.38E2,1.33E2,1.2072505E2,5.502362E1,1.3E2,1.6E1,-1.1654266E0,3.4027126E1,-3.8204896E0,1.975837E2,1.5257747E1,-8.339863E0,3.496539E1,-2.4975722E0],"split_indices":[4,2,2,1,0,2,5,0,0,0,0,0,0,0,0],"split_type":[0,0,0,0,0,0,0,0,0,0,0,0,0,0,0],"sum_hessian":[2.895E3,2.784E3,1.11E2,2.78E3,4E0,6.6E1,4.5E1,2.757E3,2.3E1,3E0,1E0,5.8E1,8E0,4.2E1,3E0],"tree_param":{"num_deleted":"0","num_feature":"7","num_nodes":"15","size_leaf_vector":"1"}},{"base_weights":[1.0271571E0,-2.250237E1,6.466389E1,-3.7577698E1,-1.2615505E0,5.9939915E1,1.8770451E2,-3.945563E0,5.9763044E-1,5.5988655E0,-1.3788241E0,-1.6055311E0,1.056011E1],"categories":[],"categories_nodes":[],"categories_segments":[],"categories_sizes":[],"default_left":[0,0,0,0,0,0,0,0,0,0,0,0,0],"id":17,"left_children":[1,3,5,7,9,11,-1,-1,-1,-1,-1,-1,-1],"loss_changes":[4.3377585E6,6.772016E5,6.582699E6,1.0141175E5,6.3115175E5,2.71179E6,0E0,0E0,0E0,0E0,0E0,0E0,0E0],"parents":[2147483647,0,0,1,1,2,2,3,3,4,4,5,5],"right_children":[2,4,6,8,10,12,-1,-1,-1,-1,-1,-1,-1],"split_conditions":[7.99E2,2.41E2,2.38E2,1.44E2,1E0,3E0,1.8770451E2,-3.945563E0,5.9763044E-1,5.5988655E0,-1.3788241E0,-1.6055311E0,1.056011E1],"split_indices":[6,6,2,2,3,4,0,0,0,0,0,0,0],"split_type":[0,0,0,0,0,0,0,0,0,0,0,0,0],"sum_hessian":[2.895E3,2.114E3,7.81E2,1.236E3,8.78E2,7.8E2,1E0,1.185E3,5.1E1,1.57E2,7.21E2,2.93E2,4.87E2],"tree_param":{"num_deleted":"0","num_feature":"7","num_nodes":"13","size_leaf_vector":"1"}},{"base_weights":[9.9264884E-1,-7.7062044E0,1.497912E2,-8.970039E0,6.84647E2,-1.0471153E2,1.8482854E2,4.322781E0,-2.0053766E0,-3.5787754E0,1.7831929E2,-1.6990393E1,1.4315022E0,1.07215385E2,1.7083227E1],"categories":[],"categories_nodes":[],"categories_segments":[],"categories_sizes":[],"default_left":[0,0,0,0,0,0,0,0,0,0,0,0,0,0,0],"id":18,"left_children":[1,3,5,7,9,11,13,-1,-1,-1,-1,-1,-1,-1,-1],"loss_changes":[3.7496695E6,2.4010705E6,1.4460892E6,1.5820348E6,4.0209692E6,1.5762469E5,1.567956E6,0E0,0E0,0E0,0E0,0E0,0E0,0E0,0E0],"parents":[2147483647,0,0,1,1,2,2,3,3,4,4,5,5,6,6],"right_children":[2,4,6,8,10,12,14,-1,-1,-1,-1,-1,-1,-1,-1],"split_conditions":[3.128E3,2.38E2,3.4389763E1,1E0,5.502362E1,1.2E2,3.5689243E1,4.322781E0,-2.0053766E0,-3.5787754E0,1.7831929E2,-1.6990393E1,1.4315022E0,1.07215385E2,1.7083227E1],"split_indices":[6,2,0,3,0,2,0,0,0,0,0,0,0,0,0],"split_type":[0,0,0,0,0,0,0,0,0,0,0,0,0,0,0],"sum_hessian":[2.895E3,2.736E3,1.59E2,2.732E3,4E0,1.9E1,1.4E2,4.78E2,2.254E3,3E0,1E0,1.2E1,7E0,1E0,1.39E2],"tree_param":{"num_deleted":"0","num_feature":"7","num_nodes":"15","size_leaf_vector":"1"}},{"base_weights":[9.920682E-1,-5.767669E0,1.6907132E2,-9.355056E0,2.2320836E2,9.513968E1,2.7307892E2,-3.1063654E0,1.3832916E0,2.8985276E0,5.491482E1,1.2240862E1,-9.419444E0,2.9468668E1,-2.747423E0],"categories":[],"categories_nodes":[],"categories_segments":[],"categories_sizes":[],"default_left":[0,0,0,0,0,0,0,0,0,0,0,0,0,0,0],"id":19,"left_children":[1,3,5,7,9,11,13,-1,-1,-1,-1,-1,-1,-1,-1],"loss_changes":[3.291328E6,2.289758E6,8.35238E5,1.3811965E6,2.7061995E6,3.5744725E5,3.0683275E5,0E0,0E0,0E0,0E0,0E0,0E0,0E0,0E0],"parents":[2147483647,0,0,1,1,2,2,3,3,4,4,5,5,6,6],"right_children":[2,4,6,8,10,12,14,-1,-1,-1,-1,-1,-1,-1,-1],"split_conditions":[7E0,1.74E2,1.33E2,3.19E2,3.6238968E1,1.3E2,1.6E1,-3.1063654E0,1.3832916E0,2.8985276E0,5.491482E1,1.2240862E1,-9.419444E0,2.9468668E1,-2.747423E0],"split_indices":[4,2,2,6,1,2,5,0,0,0,0,0,0,0,0],"split_type":[0,0,0,0,0,0,0,0,0,0,0,0,0,0,0],"sum_hessian":[2.895E3,2.784E3,1.11E2,2.742E3,4.2E1,6.6E1,4.5E1,1.416E3,1.326E3,2.7E1,1.5E1,5.8E1,8E0,4.2E1,3E0],"tree_param":{"num_deleted":"0","num_feature":"7","num_nodes":"15","size_leaf_vector":"1"}},{"base_weights":[9.224314E-1,-6.723157E0,1.3084421E2,-7.90139E0,6.384082E2,9.339393E2,1.0968456E2,-2.4424303E0,2.9025426E0,-3.527757E0,1.6665758E2,1.750139E2,7.849308E0,7.9527E0,3.5513687E1],"categories":[],"categories_nodes":[],"categories_segments":[],"categories_sizes":[],"default_left":[0,0,0,0,0,0,0,0,0,0,0,0,0,0,0],"id":20,"left_children":[1,3,5,7,9,11,13,-1,-1,-1,-1,-1,-1,-1,-1],"loss_changes":[2.8775588E6,2.08472E6,2.633468E6,1.6676074E6,3.5221018E6,2.6554858E6,1.1413115E6,0E0,0E0,0E0,0E0,0E0,0E0,0E0,0E0],"parents":[2147483647,0,0,1,1,2,2,3,3,4,4,5,5,6,6],"right_children":[2,4,6,8,10,12,14,-1,-1,-1,-1,-1,-1,-1,-1],"split_conditions":[6.741754E1,2.38E2,8.4E1,1.15E2,5.502362E1,3.3179794E1,2.737698E2,-2.4424303E0,2.9025426E0,-3.527757E0,1.6665758E2,1.750139E2,7.849308E0,7.9527E0,3.5513687E1],"split_indices":[1,2,2,2,0,0,0,0,0,0,0,0,0,0,0],"split_type":[0,0,0,0,0,0,0,0,0,0,0,0,0,0,0],"sum_hessian":[2.895E3,2.735E3,1.6E2,2.731E3,4E0,3E0,1.57E2,1.887E3,8.44E2,3E0,1E0,1E0,2E0,1.41E2,1.6E1],"tree_param":{"num_deleted":"0","num_feature":"7","num_nodes":"15","size_leaf_vector":"1"}},{"base_weights":[9.648284E-1,-1.5137859E1,5.575655E1,-1.6723536E1,5.777852E2,5.102179E1,1.5832469E2,2.9960718E0,-2.5353484E0,3.5941818E0,1.1076479E2,2.6283624E0,1.5015149E1],"categories":[],"categories_nodes":[],"categories_segments":[],"categories_sizes":[],"default_left":[0,0,0,0,0,0,0,0,0,0,0,0,0],"id":21,"left_children":[1,3,5,7,9,11,-1,-1,-1,-1,-1,-1,-1],"loss_changes":[2.5559675E6,2.1147345E6,4.678073E6,9.0079956E5,1.682805E6,1.6072058E6,0E0,0E0,0E0,0E0,0E0,0E0,0E0],"parents":[2147483647,0,0,1,1,2,2,3,3,4,4,5,5],"right_children":[2,4,6,8,10,12,-1,-1,-1,-1,-1,-1,-1],"split_conditions":[8.875993E1,5.996E3,2.38E2,1E0,5.756066E1,2.542E3,1.5832469E2,2.9960718E0,-2.5353484E0,3.5941818E0,1.1076479E2,2.6283624E0,1.5015149E1],"split_indices":[0,6,2,3,0,6,0,0,0,0,0,0,0],"split_type":[0,0,0,0,0,0,0,0,0,0,0,0,0],"sum_hessian":[2.895E3,2.238E3,6.57E2,2.233E3,5E0,6.56E2,1E0,3.48E2,1.885E3,3E0,2E0,5.26E2,1.3E2],"tree_param":{"num_deleted":"0","num_feature":"7","num_nodes":"13","size_leaf_vector":"1"}},{"base_weights":[9.687568E-1,-1.4294798E1,5.101916E1,-2.2802402E1,3.3644413E1,3.487777E1,2.716787E2,-4.3789287E0,-1.3838378E0,-3.9314466E0,5.821756E0,3.0514388E0,5.759433E1,1.0074966E2,1.9691242E1],"categories":[],"categories_nodes":[],"categories_segments":[],"categories_sizes":[],"default_left":[0,0,0,0,0,0,0,0,0,0,0,0,0,0,0],"id":22,"left_children":[1,3,5,7,9,11,13,-1,-1,-1,-1,-1,-1,-1,-1],"loss_changes":[2.2131202E6,9.0618925E5,2.40183E6,3.5420144E5,6.028866E5,1.4744998E6,2.3322725E6,0E0,0E0,0E0,0E0,0E0,0E0,0E0,0E0],"parents":[2147483647,0,0,1,1,2,2,3,3,4,4,5,5,6,6],"right_children":[2,4,6,8,10,12,14,-1,-1,-1,-1,-1,-1,-1,-1],"split_conditions":[1.21E2,9.7210915E1,4.665E3,1.26854725E1,1.6183746E1,2.38E2,5.9093086E1,-4.3789287E0,-1.3838378E0,-3.9314466E0,5.821756E0,3.0514388E0,5.759433E1,1.0074966E2,1.9691242E1],"split_indices":[2,0,6,0,1,2,0,0,0,0,0,0,0,0,0],"split_type":[0,0,0,0,0,0,0,0,0,0,0,0,0,0,0],"sum_hessian":[2.895E3,2.219E3,6.76E2,1.885E3,3.34E2,6.31E2,4.5E1,5.63E2,1.322E3,8.4E1,2.5E2,6.27E2,4E0,3E0,4.2E1],"tree_param":{"num_deleted":"0","num_feature":"7","num_nodes":"15","size_leaf_vector":"1"}},{"base_weights":[9.330728E-1,-1.4666815E1,4.312339E1,-3.0588636E1,-3.1860013E0,3.940066E1,1.4752873E2,-2.6653392E0,-5.4783263E0,-3.9568064E-1,4.720668E1,-4.905989E0,6.2092447E0],"categories":[],"categories_nodes":[],"categories_segments":[],"categories_sizes":[],"default_left":[0,0,0,0,0,0,0,0,0,0,0,0,0],"id":23,"left_children":[1,3,5,7,9,11,-1,-1,-1,-1,-1,-1,-1],"loss_changes":[1.9066761E6,3.86515E5,4.1111512E6,8.28975E4,4.524505E5,1.5707692E6,0E0,0E0,0E0,0E0,0E0,0E0,0E0],"parents":[2147483647,0,0,1,1,2,2,3,3,4,4,5,5],"right_children":[2,4,6,8,10,12,-1,-1,-1,-1,-1,-1,-1],"split_conditions":[7.99E2,1.32E2,2.38E2,6.005395E1,1.95E2,2.8088202E1,1.4752873E2,-2.6653392E0,-5.4783263E0,-3.9568064E-1,4.720668E1,-4.905989E0,6.2092447E0],"split_indices":[6,6,2,0,2,0,0,0,0,0,0,0,0],"split_type":[0,0,0,0,0,0,0,0,0,0,0,0,0],"sum_hessian":[2.895E3,2.114E3,7.81E2,8.85E2,1.229E3,7.8E2,1E0,7.63E2,1.22E2,1.228E3,1E0,1.59E2,6.21E2],"tree_param":{"num_deleted":"0","num_feature":"7","num_nodes":"13","size_leaf_vector":"1"}},{"base_weights":[9.045088E-1,-3.98493E0,1.2247757E2,-6.7506423E0,1.7253445E2,6.093221E1,2.0945717E2,-1.6762186E0,2.8432596E0,1.2906834E2,1.151813E1,8.692452E0,-1.162321E1,2.2731215E1,-3.4848E0],"categories":[],"categories_nodes":[],"categories_segments":[],"categories_sizes":[],"default_left":[0,0,0,0,0,0,0,0,0,0,0,0,0,0,0],"id":24,"left_children":[1,3,5,7,9,11,13,-1,-1,-1,-1,-1,-1,-1,-1],"loss_changes":[1.7219401E6,1.3608068E6,5.867946E5,9.6666675E5,2.6089E6,3.1863238E5,2.0857612E5,0E0,0E0,0E0,0E0,0E0,0E0,0E0,0E0],"parents":[2147483647,0,0,1,1,2,2,3,3,4,4,5,5,6,6],"right_children":[2,4,6,8,10,12,14,-1,-1,-1,-1,-1,-1,-1,-1],"split_conditions":[7E0,1.74E2,1.33E2,3E0,1.75E2,1.3E2,1.6E1,-1.6762186E0,2.8432596E0,1.2906834E2,1.151813E1,8.692452E0,-1.162321E1,2.2731215E1,-3.4848E0],"split_indices":[4,2,2,3,2,2,5,0,0,0,0,0,0,0,0],"split_type":[0,0,0,0,0,0,0,0,0,0,0,0,0,0,0],"sum_hessian":[2.895E3,2.784E3,1.11E2,2.742E3,4.2E1,6.6E1,4.5E1,2.135E3,6.07E2,1E0,4.1E1,5.8E1,8E0,4.2E1,3E0],"tree_param":{"num_deleted":"0","num_feature":"7","num_nodes":"15","size_leaf_vector":"1"}},{"base_weights":[8.686396E-1,-1.19535265E1,4.2913456E1,-1.5094364E1,7.225257E1,-8.130465E0,9.692991E1,-1.7244608E0,6.9942527E0,8.782289E1,2.9445326E0,-2.0539813E0,3.524739E0,8.871468E0,1.395764E2],"categories":[],"categories_nodes":[],"categories_segments":[],"categories_sizes":[],"default_left":[0,0,0,0,0,0,0,0,0,0,0,0,0,0,0],"id":25,"left_children":[1,3,5,7,9,11,13,-1,-1,-1,-1,-1,-1,-1,-1],"loss_changes":[1.5617629E6,5.8823106E5,1.8674202E6,3.926883E5,2.7342702E6,1.8858748E5,3.386681E6,0E0,0E0,0E0,0E0,0E0,0E0,0E0,0E0],"parents":[2147483647,0,0,1,1,2,2,3,3,4,4,5,5,6,6],"right_children":[2,4,6,8,10,12,14,-1,-1,-1,-1,-1,-1,-1,-1],"split_conditions":[1.21E2,6.741754E1,2.5170218E1,1.8381122E2,8.4E1,1.05017586E2,2.38E2,-1.7244608E0,6.9942527E0,8.782289E1,2.9445326E0,-2.0539813E0,3.524739E0,8.871468E0,1.395764E2],"split_indices":[2,1,1,0,2,0,2,0,0,0,0,0,0,0,0],"split_type":[0,0,0,0,0,0,0,0,0,0,0,0,0,0,0],"sum_hessian":[2.895E3,2.219E3,6.76E2,2.14E3,7.9E1,3.48E2,3.28E2,2.088E3,5.2E1,3E0,7.6E1,2.71E2,7.7E1,3.27E2,1E0],"tree_param":{"num_deleted":"0","num_feature":"7","num_nodes":"15","size_leaf_vector":"1"}},{"base_weights":[8.6670595E-1,-1.0714913E1,3.8843555E1,-1.7270687E1,2.62251E1,2.53152E1,2.2386697E2,-1.5802634E0,-1.1776363E1,9.005435E0,7.4664533E-1,2.1765745E0,4.6606396E1,9.202314E1,1.53882675E1],"categories":[],"categories_nodes":[],"categories_segments":[],"categories_sizes":[],"default_left":[0,0,0,0,0,0,0,0,0,0,0,0,0,0,0],"id":26,"left_children":[1,3,5,7,9,11,13,-1,-1,-1,-1,-1,-1,-1,-1],"loss_changes":[1.2741739E6,5.380712E5,1.6889062E6,2.7637888E5,4.0044E5,9.785685E5,2.1001825E6,0E0,0E0,0E0,0E0,0E0,0E0,0E0,0E0],"parents":[2147483647,0,0,1,1,2,2,3,3,4,4,5,5,6,6],"right_children":[2,4,6,8,10,12,14,-1,-1,-1,-1,-1,-1,-1,-1],"split_conditions":[1.21E2,9.7210915E1,4.665E3,3.452E3,9.5E1,2.38E2,5.9093086E1,-1.5802634E0,-1.1776363E1,9.005435E0,7.4664533E-1,2.1765745E0,4.6606396E1,9.202314E1,1.53882675E1],"split_indices":[2,0,6,6,2,2,0,0,0,0,0,0,0,0,0],"split_type":[0,0,0,0,0,0,0,0,0,0,0,0,0,0,0],"sum_hessian":[2.895E3,2.219E3,6.76E2,1.885E3,3.34E2,6.31E2,4.5E1,1.859E3,2.6E1,7.5E1,2.59E2,6.27E2,4E0,3E0,4.2E1],"tree_param":{"num_deleted":"0","num_feature":"7","num_nodes":"15","size_leaf_vector":"1"}},{"base_weights":[8.3272505E-1,-7.104854E0,5.0669857E1,-7.975521E0,4.2877884E2,-5.208112E-1,1.2447555E2,1.9622997E0,-1.3894242E0,-1.1536275E1,1.3026726E2,1.386644E1,-6.3705993E0,5.7073555E0,2.201997E1],"categories":[],"categories_nodes":[],"categories_segments":[],"categories_sizes":[],"default_left":[0,0,0,0,0,0,0,0,0,0,0,0,0,0,0],"id":27,"left_children":[1,3,5,7,9,11,13,-1,-1,-1,-1,-1,-1,-1,-1],"loss_changes":[1.1459776E6,9.518139E5,1.5037734E6,4.078257E5,2.5278895E6,2.084322E6,1.03910825E6,0E0,0E0,0E0,0E0,0E0,0E0,0E0,0E0],"parents":[2147483647,0,0,1,1,2,2,3,3,4,4,5,5,6,6],"right_children":[2,4,6,8,10,12,14,-1,-1,-1,-1,-1,-1,-1,-1],"split_conditions":[1.573E3,2.38E2,3E0,1E0,5.502362E1,1E0,1.21E2,1.9622997E0,-1.3894242E0,-1.1536275E1,1.3026726E2,1.386644E1,-6.3705993E0,5.7073555E0,2.201997E1],"split_indices":[6,2,3,3,0,3,2,0,0,0,0,0,0,0,0],"split_type":[0,0,0,0,0,0,0,0,0,0,0,0,0,0,0],"sum_hessian":[2.895E3,2.498E3,3.97E2,2.494E3,4E0,2.35E2,1.62E2,4.4E2,2.054E3,3E0,1E0,7.3E1,1.62E2,9.6E1,6.6E1],"tree_param":{"num_deleted":"0","num_feature":"7","num_nodes":"15","size_leaf_vector":"1"}},{"base_weights":[8.0281186E-1,-2.1967724E1,1.6384275E1,-1.5917787E1,-4.5770134E1,-1.0610259E1,4.1925045E1,-1.6744837E0,1.4208949E1,-7.9306154E0,-2.332783E0,-2.409333E0,4.5381218E-1,3.9169495E0,1.2375391E2],"categories":[],"categories_nodes":[],"categories_segments":[],"categories_sizes":[],"default_left":[0,0,0,0,0,0,0,0,0,0,0,0,0,0,0],"id":28,"left_children":[1,3,5,7,9,11,13,-1,-1,-1,-1,-1,-1,-1,-1],"loss_changes":[1.0278557E6,1.6876312E5,1.1863181E6,1.2521836E5,1.7727488E5,1.710638E5,2.863933E6,0E0,0E0,0E0,0E0,0E0,0E0,0E0,0E0],"parents":[2147483647,0,0,1,1,2,2,3,3,4,4,5,5,6,6],"right_children":[2,4,6,8,10,12,14,-1,-1,-1,-1,-1,-1,-1,-1],"split_conditions":[2.8374432E1,2.287623E1,4.83E2,2.2622454E1,1.26854725E1,2.04E2,2.38E2,-1.6744837E0,1.4208949E1,-7.9306154E0,-2.332783E0,-2.409333E0,4.5381218E-1,3.9169495E0,1.2375391E2],"split_indices":[0,1,6,1,0,6,2,0,0,0,0,0,0,0,0],"split_type":[0,0,0,0,0,0,0,0,0,0,0,0,0,0,0],"sum_hessian":[2.895E3,1.176E3,1.719E3,9.39E2,2.37E2,8.36E2,8.83E2,9.35E2,4E0,9.4E1,1.43E2,4.42E2,3.94E2,8.82E2,1E0],"tree_param":{"num_deleted":"0","num_feature":"7","num_nodes":"15","size_leaf_vector":"1"}},{"base_weights":[7.667246E-1,-2.2855306E0,1.0423997E2,-3.9317153E0,1.9764636E2,5.9166046E1,2.0078024E2,-4.6299586E-1,3.8619503E1,2.9830206E1,-2.2437452E1,-7.905267E0,1.0085262E1,3.810659E1,1.3970911E1],"categories":[],"categories_nodes":[],"categories_segments":[],"categories_sizes":[],"default_left":[0,0,0,0,0,0,0,0,0,0,0,0,0,0,0],"id":29,"left_children":[1,3,5,7,9,11,13,-1,-1,-1,-1,-1,-1,-1,-1],"loss_changes":[9.148725E5,9.269344E5,3.4929094E5,7.6233825E5,1.0439438E6,3.4216088E5,2.3302806E5,0E0,0E0,0E0,0E0,0E0,0E0,0E0,0E0],"parents":[2147483647,0,0,1,1,2,2,3,3,4,4,5,5,6,6],"right_children":[2,4,6,8,10,12,14,-1,-1,-1,-1,-1,-1,-1,-1],"split_conditions":[2.3079692E2,5.996E3,1.41E2,2.38E2,4E0,1E0,1.44E2,-4.6299586E-1,3.8619503E1,2.9830206E1,-2.2437452E1,-7.905267E0,1.0085262E1,3.810659E1,1.3970911E1],"split_indices":[0,6,2,2,5,5,2,0,0,0,0,0,0,0,0],"split_type":[0,0,0,0,0,0,0,0,0,0,0,0,0,0,0],"sum_hessian":[2.895E3,2.813E3,8.2E1,2.791E3,2.2E1,5.7E1,2.5E1,2.787E3,4E0,1.8E1,4E0,1.3E1,4.4E1,5E0,2E1],"tree_param":{"num_deleted":"0","num_feature":"7","num_nodes":"15","size_leaf_vector":"1"}},{"base_weights":[7.245157E-1,-1.9320953E1,1.4441256E1,-2.9876114E1,-7.873817E0,-4.1057342E-1,5.8046078E1,-2.008345E0,-6.6029816E0,-4.6336523E-1,-8.085447E0,5.71006E0,-2.3842936E0,3.380734E0,1.6101845E1],"categories":[],"categories_nodes":[],"categories_segments":[],"categories_sizes":[],"default_left":[0,0,0,0,0,0,0,0,0,0,0,0,0,0,0],"id":30,"left_children":[1,3,5,7,9,11,13,-1,-1,-1,-1,-1,-1,-1,-1],"loss_changes":[7.965588E5,1.419774E5,1.1139154E6,2.15347E5,1.3346698E5,1.731709E6,1.0852736E6,0E0,0E0,0E0,0E0,0E0,0E0,0E0,0E0],"parents":[2147483647,0,0,1,1,2,2,3,3,4,4,5,5,6,6],"right_children":[2,4,6,8,10,12,14,-1,-1,-1,-1,-1,-1,-1,-1],"split_conditions":[2.8374432E1,1.26854725E1,3E0,4.04E2,1.35E2,1E0,2.542E3,-2.008345E0,-6.6029816E0,-4.6336523E-1,-8.085447E0,5.71006E0,-2.3842936E0,3.380734E0,1.6101845E1],"split_indices":[0,0,3,6,2,3,6,0,0,0,0,0,0,0,0],"split_type":[0,0,0,0,0,0,0,0,0,0,0,0,0,0,0],"sum_hessian":[2.895E3,1.176E3,1.719E3,6.11E2,5.65E2,1.283E3,4.36E2,4.82E2,1.29E2,5.42E2,2.3E1,3.71E2,9.12E2,3.54E2,8.2E1],"tree_param":{"num_deleted":"0","num_feature":"7","num_nodes":"15","size_leaf_vector":"1"}},{"base_weights":[6.5401417E-1,-1.3963896E0,1.2772025E2,-1.0156081E1,2.7077951E1,1.2207851E2,7.630137E1,2.6165752E0,-2.064115E0,7.3873895E-1,1.2965573E1,-1.4370534E0,2.7810135E1],"categories":[],"categories_nodes":[],"categories_segments":[],"categories_sizes":[],"default_left":[0,0,0,0,0,0,0,0,0,0,0,0,0],"id":31,"left_children":[1,3,5,7,9,-1,11,-1,-1,-1,-1,-1,-1],"loss_changes":[7.5469375E5,7.113898E5,2.4922445E6,8.311454E5,1.3543375E6,0E0,8.273879E5,0E0,0E0,0E0,0E0,0E0,0E0],"parents":[2147483647,0,0,1,1,2,2,3,3,4,4,6,6],"right_children":[2,4,6,8,10,-1,12,-1,-1,-1,-1,-1,-1],"split_conditions":[1.74E2,3E0,1.75E2,1E0,2.247E3,1.2207851E2,4.028635E1,2.6165752E0,-2.064115E0,7.3873895E-1,1.2965573E1,-1.4370534E0,2.7810135E1],"split_indices":[2,3,2,3,6,0,1,0,0,0,0,0,0],"split_type":[0,0,0,0,0,0,0,0,0,0,0,0,0],"sum_hessian":[2.895E3,2.85E3,4.5E1,2.18E3,6.7E2,1E0,4.4E1,4.88E2,1.692E3,5.63E2,1.07E2,3.1E1,1.3E1],"tree_param":{"num_deleted":"0","num_feature":"7","num_nodes":"13","size_leaf_vector":"1"}},{"base_weights":[6.447965E-1,-1.2517502E0,1.18175446E2,-9.14022E0,2.4390581E1,1.1597459E2,6.92573E1,2.3554525E0,-1.8578253E0,8.2795924E-1,1.2830396E1,2.950856E0,4.693048E1],"categories":[],"categories_nodes":[],"categories_segments":[],"categories_sizes":[],"default_left":[0,0,0,0,0,0,0,0,0,0,0,0,0],"id":32,"left_children":[1,3,5,7,9,-1,11,-1,-1,-1,-1,-1,-1],"loss_changes":[6.456732E5,5.769196E5,2.2634565E6,6.7343775E5,1.1222902E6,0E0,7.017139E5,0E0,0E0,0E0,0E0,0E0,0E0],"parents":[2147483647,0,0,1,1,2,2,3,3,4,4,6,6],"right_children":[2,4,6,8,10,-1,12,-1,-1,-1,-1,-1,-1],"split_conditions":[1.74E2,3E0,1.75E2,1E0,2.542E3,1.1597459E2,1.08849625E2,2.3554525E0,-1.8578253E0,8.2795924E-1,1.2830396E1,2.950856E0,4.693048E1],"split_indices":[2,3,2,3,6,0,1,0,0,0,0,0,0],"split_type":[0,0,0,0,0,0,0,0,0,0,0,0,0],"sum_hessian":[2.895E3,2.85E3,4.5E1,2.18E3,6.7E2,1E0,4.4E1,4.88E2,1.692E3,5.81E2,8.9E1,4.1E1,3E0],"tree_param":{"num_deleted":"0","num_feature":"7","num_nodes":"13","size_leaf_vector":"1"}},{"base_weights":[6.424751E-1,4.1619416E-2,3.4804892E2,-1.4697816E0,1.1998692E2,-1.3399732E1,1.138117E2,-2.50299E0,4.9506378E-1,-3.5540086E-1,2.083997E1],"categories":[],"categories_nodes":[],"categories_segments":[],"categories_sizes":[],"default_left":[0,0,0,0,0,0,0,0,0,0,0],"id":33,"left_children":[1,3,5,7,9,-1,-1,-1,-1,-1,-1],"loss_changes":[6.044999E5,5.2445394E5,2.0567512E6,4.322904E5,3.9395412E5,0E0,0E0,0E0,0E0,0E0,0E0],"parents":[2147483647,0,0,1,1,2,2,3,3,4,4],"right_children":[2,4,6,8,10,-1,-1,-1,-1,-1,-1],"split_conditions":[2.38E2,2.737698E2,5.502362E1,1.26854725E1,5.9113174E1,-1.3399732E1,1.138117E2,-2.50299E0,4.9506378E-1,-3.5540086E-1,2.083997E1],"split_indices":[2,0,0,0,1,0,0,0,0,0,0],"split_type":[0,0,0,0,0,0,0,0,0,0,0],"sum_hessian":[2.895E3,2.891E3,4E0,2.856E3,3.5E1,3E0,1E0,6.11E2,2.245E3,1.5E1,2E1],"tree_param":{"num_deleted":"0","num_feature":"7","num_nodes":"11","size_leaf_vector":"1"}},{"base_weights":[6.192813E-1,4.3847274E-2,3.3332648E2,-6.892281E0,2.292373E1,-1.2394752E1,1.0812112E2,-5.8141035E-1,-1.0132371E1,1.07929185E-1,8.5080595E0],"categories":[],"categories_nodes":[],"categories_segments":[],"categories_sizes":[],"default_left":[0,0,0,0,0,0,0,0,0,0,0],"id":34,"left_children":[1,3,5,7,9,-1,-1,-1,-1,-1,-1],"loss_changes":[5.5442756E5,4.5911206E5,1.8439546E6,2.2543764E5,9.1369525E5,0E0,0E0,0E0,0E0,0E0,0E0],"parents":[2147483647,0,0,1,1,2,2,3,3,4,4],"right_children":[2,4,6,8,10,-1,-1,-1,-1,-1,-1],"split_conditions":[2.38E2,1.21E2,5.502362E1,4.665E3,3E0,-1.2394752E1,1.0812112E2,-5.8141035E-1,-1.0132371E1,1.07929185E-1,8.5080595E0],"split_indices":[2,2,0,6,3,0,0,0,0,0,0],"split_type":[0,0,0,0,0,0,0,0,0,0,0],"sum_hessian":[2.895E3,2.891E3,4E0,2.219E3,6.72E2,3E0,1E0,2.195E3,2.4E1,4.98E2,1.74E2],"tree_param":{"num_deleted":"0","num_feature":"7","num_nodes":"11","size_leaf_vector":"1"}},{"base_weights":[5.896848E-1,-1.1000944E0,1.0530644E2,-1.420943E0,4.5665913E1,1.10145706E2,5.869294E1,-8.068827E-1,2.0179365E0,2.1584842E0,4.3365475E1],"categories":[],"categories_nodes":[],"categories_segments":[],"categories_sizes":[],"default_left":[0,0,0,0,0,0,0,0,0,0,0],"id":35,"left_children":[1,3,5,7,-1,-1,9,-1,-1,-1,-1],"loss_changes":[5.1255784E5,4.1937916E5,2.0713195E6,4.0941238E5,0E0,0E0,6.1677494E5,0E0,0E0,0E0,0E0],"parents":[2147483647,0,0,1,1,2,2,3,3,6,6],"right_children":[2,4,6,8,-1,-1,10,-1,-1,-1,-1],"split_conditions":[1.74E2,1.1776E4,1.75E2,3E0,4.5665913E1,1.10145706E2,1.08849625E2,-8.068827E-1,2.0179365E0,2.1584842E0,4.3365475E1],"split_indices":[2,6,2,3,0,0,1,0,0,0,0],"split_type":[0,0,0,0,0,0,0,0,0,0,0],"sum_hessian":[2.895E3,2.85E3,4.5E1,2.849E3,1E0,1E0,4.4E1,2.179E3,6.7E2,4.1E1,3E0],"tree_param":{"num_deleted":"0","num_feature":"7","num_nodes":"11","size_leaf_vector":"1"}},{"base_weights":[6.006569E-1,5.2711297E-2,3.1741226E2,-2.7210001E1,5.5437255E0,-1.1627031E1,1.0260713E2,-1.787314E0,-1.0808322E1,8.321687E0,-5.465665E-1],"categories":[],"categories_nodes":[],"categories_segments":[],"categories_sizes":[],"default_left":[0,0,0,0,0,0,0,0,0,0,0],"id":36,"left_children":[1,3,5,7,9,-1,-1,-1,-1,-1,-1],"loss_changes":[5.0271594E5,4.3308306E5,1.655967E6,3.642926E5,2.0596175E6,0E0,0E0,0E0,0E0,0E0,0E0],"parents":[2147483647,0,0,1,1,2,2,3,3,4,4],"right_children":[2,4,6,8,10,-1,-1,-1,-1,-1,-1],"split_conditions":[2.38E2,1E0,5.502362E1,6.2479572E1,3E0,-1.1627031E1,1.0260713E2,-1.787314E0,-1.0808322E1,8.321687E0,-5.465665E-1],"split_indices":[2,5,0,1,5,0,0,0,0,0,0],"split_type":[0,0,0,0,0,0,0,0,0,0,0],"sum_hessian":[2.895E3,2.891E3,4E0,4.84E2,2.407E3,3E0,1E0,4.35E2,4.9E1,2.98E2,2.109E3],"tree_param":{"num_deleted":"0","num_feature":"7","num_nodes":"11","size_leaf_vector":"1"}},{"base_weights":[5.703437E-1,-1.2050999E1,1.3200009E1,-7.6297836E0,-2.623069E1,1.1861836E1,9.747678E1,-8.2349175E-1,2.1760283E1,-5.119474E0,-1.3138227E0,1.6965269E0,-6.6199126E0],"categories":[],"categories_nodes":[],"categories_segments":[],"categories_sizes":[],"default_left":[0,0,0,0,0,0,0,0,0,0,0,0,0],"id":37,"left_children":[1,3,5,7,9,11,-1,-1,-1,-1,-1,-1,-1],"loss_changes":[4.6179116E5,9.063983E4,1.8516421E6,1.5253525E5,1.1176064E5,5.7757725E5,0E0,0E0,0E0,0E0,0E0,0E0,0E0],"parents":[2147483647,0,0,1,1,2,2,3,3,4,4,5,5],"right_children":[2,4,6,8,10,12,-1,-1,-1,-1,-1,-1,-1],"split_conditions":[1.6051329E1,5.3046883E1,2.38E2,1.705E3,6.938854E0,1.6E1,9.747678E1,-8.2349175E-1,2.1760283E1,-5.119474E0,-1.3138227E0,1.6965269E0,-6.6199126E0],"split_indices":[1,0,2,6,1,5,0,0,0,0,0,0,0],"split_type":[0,0,0,0,0,0,0,0,0,0,0,0,0],"sum_hessian":[2.895E3,1.448E3,1.447E3,1.105E3,3.43E2,1.446E3,1E0,1.103E3,2E0,1.17E2,2.26E2,1.358E3,8.8E1],"tree_param":{"num_deleted":"0","num_feature":"7","num_nodes":"13","size_leaf_vector":"1"}},{"base_weights":[5.502744E-1,-7.986795E-1,1.0773935E2,-1.2998415E0,2.8572507E2,5.1393414E2,4.090455E1,-2.8204283E-1,8.5896635E0,-1.0585843E1,9.260296E1,-4.1966567E0,1.3687686E2,-6.913818E0,2.0705456E1],"categories":[],"categories_nodes":[],"categories_segments":[],"categories_sizes":[],"default_left":[0,0,0,0,0,0,0,0,0,0,0,0,0,0,0],"id":38,"left_children":[1,3,5,7,9,11,13,-1,-1,-1,-1,-1,-1,-1,-1],"loss_changes":[4.1882772E5,4.1119622E5,9.563039E5,3.7905128E5,1.3516912E6,2.433458E6,5.9939056E5,0E0,0E0,0E0,0E0,0E0,0E0,0E0,0E0],"parents":[2147483647,0,0,1,1,2,2,3,3,4,4,5,5,6,6],"right_children":[2,4,6,8,10,12,14,-1,-1,-1,-1,-1,-1,-1,-1],"split_conditions":[5.996E3,2.38E2,5.9093086E1,2.4666048E2,5.502362E1,5.756066E1,1.41E2,-2.8204283E-1,8.5896635E0,-1.0585843E1,9.260296E1,-4.1966567E0,1.3687686E2,-6.913818E0,2.0705456E1],"split_indices":[6,2,0,0,0,0,2,0,0,0,0,0,0,0,0],"split_type":[0,0,0,0,0,0,0,0,0,0,0,0,0,0,0],"sum_hessian":[2.895E3,2.86E3,3.5E1,2.856E3,4E0,4E0,3.1E1,2.808E3,4.8E1,3E0,1E0,3E0,1E0,1.9E1,1.2E1],"tree_param":{"num_deleted":"0","num_feature":"7","num_nodes":"15","size_leaf_vector":"1"}},{"base_weights":[5.770138E-1,2.5955864E1,-4.923223E0,8.254173E0,1.38623E2,-1.3456238E1,1.6618563E1,-1.6186606E0,4.360145E0,4.7666065E1,-6.1252683E-1,-8.5398716E-1,-6.7963862E0,2.4202812E-1,9.045348E0],"categories":[],"categories_nodes":[],"categories_segments":[],"categories_sizes":[],"default_left":[0,0,0,0,0,0,0,0,0,0,0,0,0,0,0],"id":39,"left_children":[1,3,5,7,9,11,13,-1,-1,-1,-1,-1,-1,-1,-1],"loss_changes":[4.043795E5,1.0279655E6,4.378904E5,3.868758E5,3.4280455E6,4.5659262E5,7.0845144E5,0E0,0E0,0E0,0E0,0E0,0E0,0E0,0E0],"parents":[2147483647,0,0,1,1,2,2,3,3,4,4,5,5,6,6],"right_children":[2,4,6,8,10,12,14,-1,-1,-1,-1,-1,-1,-1,-1],"split_conditions":[1E0,4.7479755E1,3E0,4.53E2,2.065E3,4.8032734E1,2.247E3,-1.6186606E0,4.360145E0,4.7666065E1,-6.1252683E-1,-8.5398716E-1,-6.7963862E0,2.4202812E-1,9.045348E0],"split_indices":[3,1,3,6,6,1,6,0,0,0,0,0,0,0,0],"split_type":[0,0,0,0,0,0,0,0,0,0,0,0,0,0,0],"sum_hessian":[2.895E3,5.15E2,2.38E3,4.46E2,6.9E1,1.705E3,6.75E2,2.64E2,1.82E2,2E1,4.9E1,1.565E3,1.4E2,5.67E2,1.08E2],"tree_param":{"num_deleted":"0","num_feature":"7","num_nodes":"15","size_leaf_vector":"1"}},{"base_weights":[5.370732E-1,-9.076245E-1,9.006525E1,-1.2070985E0,4.2629665E1,1.0463772E2,4.556104E1,9.3050766E-1,-1.1306343E0,1.1905196E0,3.875572E1],"categories":[],"categories_nodes":[],"categories_segments":[],"categories_sizes":[],"default_left":[0,0,0,0,0,0,0,0,0,0,0],"id":40,"left_children":[1,3,5,7,-1,-1,9,-1,-1,-1,-1],"loss_changes":[3.746537E5,3.6526172E5,1.9100815E6,3.0267553E5,0E0,0E0,5.1334362E5,0E0,0E0,0E0,0E0],"parents":[2147483647,0,0,1,1,2,2,3,3,6,6],"right_children":[2,4,6,8,-1,-1,10,-1,-1,-1,-1],"split_conditions":[1.74E2,1.1776E4,1.75E2,4E0,4.2629665E1,1.0463772E2,1.08849625E2,9.3050766E-1,-1.1306343E0,1.1905196E0,3.875572E1],"split_indices":[2,6,2,5,0,0,1,0,0,0,0],"split_type":[0,0,0,0,0,0,0,0,0,0,0],"sum_hessian":[2.895E3,2.85E3,4.5E1,2.849E3,1E0,1E0,4.4E1,1.396E3,1.453E3,4.1E1,3E0],"tree_param":{"num_deleted":"0","num_feature":"7","num_nodes":"11","size_leaf_vector":"1"}},{"base_weights":[5.479421E-1,-2.5559668E1,5.7973795E0,-1.3551134E1,-8.441196E1,7.065881E1,-3.3792362E0,-1.9131613E0,1.3244471E1,-2.4578281E1,-5.0446687E0,-1.9287318E0,1.4382286E1,-4.5826402E-1,2.2710629E1],"categories":[],"categories_nodes":[],"categories_segments":[],"categories_sizes":[],"default_left":[0,0,0,0,0,0,0,0,0,0,0,0,0,0,0],"id":41,"left_children":[1,3,5,7,9,11,13,-1,-1,-1,-1,-1,-1,-1,-1],"loss_changes":[3.9704572E5,3.4162003E5,1.4358815E6,3.3168344E5,4.3704344E5,1.9704401E6,5.873949E5,0E0,0E0,0E0,0E0,0E0,0E0,0E0,0E0],"parents":[2147483647,0,0,1,1,2,2,3,3,4,4,5,5,6,6],"right_children":[2,4,6,8,10,12,14,-1,-1,-1,-1,-1,-1,-1,-1],"split_conditions":[1E0,1.795E3,3E0,1.7890662E2,6.105239E1,2.5402697E1,2.4666048E2,-1.9131613E0,1.3244471E1,-2.4578281E1,-5.0446687E0,-1.9287318E0,1.4382286E1,-4.5826402E-1,2.2710629E1],"split_indices":[5,6,5,0,0,1,0,0,0,0,0,0,0,0,0],"split_type":[0,0,0,0,0,0,0,0,0,0,0,0,0,0,0],"sum_hessian":[2.895E3,4.84E2,2.411E3,4.03E2,8.1E1,2.98E2,2.113E3,3.89E2,1.4E1,1.3E1,6.8E1,1.34E2,1.64E2,2.103E3,1E1],"tree_param":{"num_deleted":"0","num_feature":"7","num_nodes":"15","size_leaf_vector":"1"}},{"base_weights":[4.9881598E-1,4.327637E-2,2.6388315E2,-2.3041416E1,4.6927915E0,-9.791059E0,8.555291E1,-1.2167975E0,-7.633201E0,6.363458E0,-3.6618477E-1],"categories":[],"categories_nodes":[],"categories_segments":[],"categories_sizes":[],"default_left":[0,0,0,0,0,0,0,0,0,0,0],"id":42,"left_children":[1,3,5,7,9,-1,-1,-1,-1,-1,-1],"loss_changes":[3.4745644E5,3.105141E5,1.1540341E6,2.801055E5,1.1860222E6,0E0,0E0,0E0,0E0,0E0,0E0],"parents":[2147483647,0,0,1,1,2,2,3,3,4,4],"right_children":[2,4,6,8,10,-1,-1,-1,-1,-1,-1],"split_conditions":[2.38E2,1E0,5.502362E1,1.795E3,3E0,-9.791059E0,8.555291E1,-1.2167975E0,-7.633201E0,6.363458E0,-3.6618477E-1],"split_indices":[2,5,0,6,5,0,0,0,0,0,0],"split_type":[0,0,0,0,0,0,0,0,0,0,0],"sum_hessian":[2.895E3,2.891E3,4E0,4.84E2,2.407E3,3E0,1E0,4.03E2,8.1E1,2.98E2,2.109E3],"tree_param":{"num_deleted":"0","num_feature":"7","num_nodes":"11","size_leaf_vector":"1"}},{"base_weights":[4.7410998E-1,3.796206E-2,2.5264725E2,-2.3446316E-1,3.9380962E1,-9.056728E0,8.127527E1,-1.887397E0,4.7688755E-1],"categories":[],"categories_nodes":[],"categories_segments":[],"categories_sizes":[],"default_left":[0,0,0,0,0,0,0,0,0],"id":43,"left_children":[1,3,5,7,-1,-1,-1,-1,-1],"loss_changes":[3.1850634E5,3.1032684E5,1.0347905E6,2.69704E5,0E0,0E0,0E0,0E0,0E0],"parents":[2147483647,0,0,1,1,2,2,3,3],"right_children":[2,4,6,8,-1,-1,-1,-1,-1],"split_conditions":[2.38E2,1.1776E4,5.502362E1,1.26854725E1,3.9380962E1,-9.056728E0,8.127527E1,-1.887397E0,4.7688755E-1],"split_indices":[2,6,0,0,0,0,0,0,0],"split_type":[0,0,0,0,0,0,0,0,0],"sum_hessian":[2.895E3,2.891E3,4E0,2.89E3,1E0,3E0,1E0,6.11E2,2.279E3],"tree_param":{"num_deleted":"0","num_feature":"7","num_nodes":"9","size_leaf_vector":"1"}},{"base_weights":[4.647472E-1,-5.170343E0,1.8942495E1,-4.185864E0,-9.144015E1,1.07598295E1,1.309534E2,-6.6212386E-1,8.413645E0,1.9942449E0,-1.670247E1,1.9965576E0,-5.585258E0,7.5879456E1,6.950415E0],"categories":[],"categories_nodes":[],"categories_segments":[],"categories_sizes":[],"default_left":[0,0,0,0,0,0,0,0,0,0,0,0,0,0,0],"id":44,"left_children":[1,3,5,7,9,11,13,-1,-1,-1,-1,-1,-1,-1,-1],"loss_changes":[3.016404E5,1.881636E5,6.1909375E5,4.7291206E5,2.13801E5,3.8866825E5,1.7219578E6,0E0,0E0,0E0,0E0,0E0,0E0,0E0,0E0],"parents":[2147483647,0,0,1,1,2,2,3,3,4,4,5,5,6,6],"right_children":[2,4,6,8,10,12,14,-1,-1,-1,-1,-1,-1,-1,-1],"split_conditions":[1.21E2,4.665E3,4.665E3,6.741754E1,1.07E2,5.4931335E1,5.9093086E1,-6.6212386E-1,8.413645E0,1.9942449E0,-1.670247E1,1.9965576E0,-5.585258E0,7.5879456E1,6.950415E0],"split_indices":[2,6,6,1,2,1,0,0,0,0,0,0,0,0,0],"split_type":[0,0,0,0,0,0,0,0,0,0,0,0,0,0,0],"sum_hessian":[2.895E3,2.219E3,6.76E2,2.195E3,2.4E1,6.31E2,4.5E1,2.137E3,5.8E1,1E1,1.4E1,5.55E2,7.6E1,3E0,4.2E1],"tree_param":{"num_deleted":"0","num_feature":"7","num_nodes":"15","size_leaf_vector":"1"}},{"base_weights":[4.432318E-1,2.8511232E-2,2.4022896E2,-2.2789116E-1,3.7064392E1,-8.527215E0,7.711167E1,-2.083306E0,3.924055E-1],"categories":[],"categories_nodes":[],"categories_segments":[],"categories_sizes":[],"default_left":[0,0,0,0,0,0,0,0,0],"id":45,"left_children":[1,3,5,7,-1,-1,-1,-1,-1],"loss_changes":[2.879832E5,2.7490166E5,9.297775E5,2.474113E5,0E0,0E0,0E0,0E0,0E0],"parents":[2147483647,0,0,1,1,2,2,3,3],"right_children":[2,4,6,8,-1,-1,-1,-1,-1],"split_conditions":[2.38E2,1.1776E4,5.502362E1,1E0,3.7064392E1,-8.527215E0,7.711167E1,-2.083306E0,3.924055E-1],"split_indices":[2,6,0,5,0,0,0,0,0],"split_type":[0,0,0,0,0,0,0,0,0],"sum_hessian":[2.895E3,2.891E3,4E0,2.89E3,1E0,3E0,1E0,4.84E2,2.406E3],"tree_param":{"num_deleted":"0","num_feature":"7","num_nodes":"9","size_leaf_vector":"1"}},{"base_weights":[4.348069E-1,2.140411E1,-4.109752E0,1.13696995E1,1.8358257E2,-1.11830015E1,1.3746865E1,6.6845906E-1,3.8584522E1,1.5749525E2,8.129559E0,-6.547558E-1,-6.2586703E0,-3.9791113E-1,6.412736E0],"categories":[],"categories_nodes":[],"categories_segments":[],"categories_sizes":[],"default_left":[0,0,0,0,0,0,0,0,0,0,0,0,0,0,0],"id":46,"left_children":[1,3,5,7,9,11,13,-1,-1,-1,-1,-1,-1,-1,-1],"loss_changes":[2.7606588E5,8.3763325E5,3.0088428E5,8.518421E5,4.1415342E6,4.0609412E5,6.0395256E5,0E0,0E0,0E0,0E0,0E0,0E0,0E0,0E0],"parents":[2147483647,0,0,1,1,2,2,3,3,4,4,5,5,6,6],"right_children":[2,4,6,8,10,12,14,-1,-1,-1,-1,-1,-1,-1,-1],"split_conditions":[1E0,7.730019E1,3E0,1.97E2,8.4E1,4.8032734E1,1.21E2,6.6845906E-1,3.8584522E1,1.5749525E2,8.129559E0,-6.547558E-1,-6.2586703E0,-3.9791113E-1,6.412736E0],"split_indices":[3,1,3,2,2,1,2,0,0,0,0,0,0,0,0],"split_type":[0,0,0,0,0,0,0,0,0,0,0,0,0,0,0],"sum_hessian":[2.895E3,5.15E2,2.38E3,4.86E2,2.9E1,1.705E3,6.75E2,4.81E2,5E0,1E0,2.8E1,1.565E3,1.4E2,5E2,1.75E2],"tree_param":{"num_deleted":"0","num_feature":"7","num_nodes":"15","size_leaf_vector":"1"}},{"base_weights":[4.6176103E-1,2.1650359E-1,3.5524105E1,2.2772758E0,-4.0352818E1,8.5309796E-2,9.428598E0,-1.5026337E0,-1.6213804E1],"categories":[],"categories_nodes":[],"categories_segments":[],"categories_sizes":[],"default_left":[0,0,0,0,0,0,0,0,0],"id":47,"left_children":[1,3,-1,5,7,-1,-1,-1,-1],"loss_changes":[2.5191058E5,2.4212583E5,0E0,3.6105688E5,4.2937838E5,0E0,0E0,0E0,0E0],"parents":[2147483647,0,0,1,1,3,3,4,4],"right_children":[2,4,-1,6,8,-1,-1,-1,-1],"split_conditions":[1.1776E4,1.6E1,3.5524105E1,1.74E2,4.539584E1,8.5309796E-2,9.428598E0,-1.5026337E0,-1.6213804E1],"split_indices":[6,5,0,2,1,0,0,0,0],"split_type":[0,0,0,0,0,0,0,0,0],"sum_hessian":[2.895E3,2.894E3,1E0,2.755E3,1.39E2,2.714E3,4.1E1,1.16E2,2.3E1],"tree_param":{"num_deleted":"0","num_feature":"7","num_nodes":"9","size_leaf_vector":"1"}},{"base_weights":[4.2501932E-1,-1.341649E1,6.404779E0,-8.880552E0,-4.157087E1,5.707102E0,7.085542E1,-2.5322368E0,-6.2402624E-1,-3.7277997E0,-9.085133E0,3.197268E0,-5.2944362E-2],"categories":[],"categories_nodes":[],"categories_segments":[],"categories_sizes":[],"default_left":[0,0,0,0,0,0,0,0,0,0,0,0,0],"id":48,"left_children":[1,3,5,7,9,11,-1,-1,-1,-1,-1,-1,-1],"loss_changes":[2.3978466E5,1.112463E5,9.869709E5,3.2574E4,2.2211375E4,3.3123356E5,0E0,0E0,0E0,0E0,0E0,0E0,0E0],"parents":[2147483647,0,0,1,1,2,2,3,3,4,4,5,5],"right_children":[2,4,6,8,10,12,-1,-1,-1,-1,-1,-1,-1],"split_conditions":[1.29E2,6.005395E1,2.38E2,1E0,1.72E2,1E0,7.085542E1,-2.5322368E0,-6.2402624E-1,-3.7277997E0,-9.085133E0,3.197268E0,-5.2944362E-2],"split_indices":[6,0,2,3,2,3,0,0,0,0,0,0,0],"split_type":[0,0,0,0,0,0,0,0,0,0,0,0,0],"sum_hessian":[2.895E3,8.73E2,2.022E3,7.53E2,1.2E2,2.021E3,1E0,1.03E2,6.5E2,1.12E2,8E0,3.87E2,1.634E3],"tree_param":{"num_deleted":"0","num_feature":"7","num_nodes":"13","size_leaf_vector":"1"}},{"base_weights":[4.0255615E-1,1.6953078E-1,3.375055E1,-1.0215299E1,7.158645E0,-3.8029703E-1,-3.5440938E0,-2.148358E0,1.5230836E0],"categories":[],"categories_nodes":[],"categories_segments":[],"categories_sizes":[],"default_left":[0,0,0,0,0,0,0,0,0],"id":49,"left_children":[1,3,-1,5,7,-1,-1,-1,-1],"loss_changes":[2.2743383E5,2.1019442E5,0E0,1.8830984E5,4.0054394E5,0E0,0E0,0E0,0E0],"parents":[2147483647,0,0,1,1,3,3,4,4],"right_children":[2,4,-1,6,8,-1,-1,-1,-1],"split_conditions":[1.1776E4,2.8088202E1,3.375055E1,2.287623E1,1E0,-3.8029703E-1,-3.5440938E0,-2.148358E0,1.5230836E0],"split_indices":[6,0,0,1,5,0,0,0,0],"split_type":[0,0,0,0,0,0,0,0,0],"sum_hessian":[2.895E3,2.894E3,1E0,1.164E3,1.73E3,9.29E2,2.35E2,3.8E2,1.35E3],"tree_param":{"num_deleted":"0","num_feature":"7","num_nodes":"9","size_leaf_vector":"1"}},{"base_weights":[3.7238503E-1,-6.03921E-1,7.795125E1,-9.438076E-1,1.9372807E2,4.5175983E2,1.7107683E1,-5.4268625E-2,-1.6418E1,-9.40224E0,6.72365E1,-5.660564E0,1.24261086E2,-6.5923257E0,1.4353162E1],"categories":[],"categories_nodes":[],"categories_segments":[],"categories_sizes":[],"default_left":[0,0,0,0,0,0,0,0,0,0,0,0,0,0,0],"id":50,"left_children":[1,3,5,7,9,11,13,-1,-1,-1,-1,-1,-1,-1,-1],"loss_changes":[2.1939219E5,1.8915431E5,8.110499E5,1.869802E5,7.518574E5,2.0805455E6,3.4536922E5,0E0,0E0,0E0,0E0,0E0,0E0,0E0,0E0],"parents":[2147483647,0,0,1,1,2,2,3,3,4,4,5,5,6,6],"right_children":[2,4,6,8,10,12,14,-1,-1,-1,-1,-1,-1,-1,-1],"split_conditions":[5.996E3,2.38E2,5.9093086E1,2E2,5.502362E1,5.756066E1,1.41E2,-5.4268625E-2,-1.6418E1,-9.40224E0,6.72365E1,-5.660564E0,1.24261086E2,-6.5923257E0,1.4353162E1],"split_indices":[6,2,0,2,0,0,2,0,0,0,0,0,0,0,0],"split_type":[0,0,0,0,0,0,0,0,0,0,0,0,0,0,0],"sum_hessian":[2.895E3,2.86E3,3.5E1,2.856E3,4E0,4E0,3.1E1,2.85E3,6E0,3E0,1E0,3E0,1E0,1.9E1,1.2E1],"tree_param":{"num_deleted":"0","num_feature":"7","num_nodes":"15","size_leaf_vector":"1"}},{"base_weights":[3.9306185E-1,2.2592974E0,-3.6361256E1,-7.9016857E0,1.2702529E1,-1.3284673E1,-1.4734454E2,-3.1845447E-1,-2.2919214E0,1.1771852E0,6.3874683E1,-1.7335984E0,2.2833364E1,-1.7560953E1,-4.8157594E-1],"categories":[],"categories_nodes":[],"categories_segments":[],"categories_sizes":[],"default_left":[0,0,0,0,0,0,0,0,0,0,0,0,0,0,0],"id":51,"left_children":[1,3,5,7,9,11,13,-1,-1,-1,-1,-1,-1,-1,-1],"loss_changes":[1.9872522E5,2.9265528E5,3.565987E5,9.896105E4,7.848786E5,1.18486266E5,9.584006E4,0E0,0E0,0E0,0E0,0E0,0E0,0E0,0E0],"parents":[2147483647,0,0,1,1,2,2,3,3,4,4,5,5,6,6],"right_children":[2,4,6,8,10,12,14,-1,-1,-1,-1,-1,-1,-1,-1],"split_conditions":[1.6E1,1.6051329E1,4.539584E1,5.3046883E1,2.38E2,2.142E3,1.3545634E2,-3.1845447E-1,-2.2919214E0,1.1771852E0,6.3874683E1,-1.7335984E0,2.2833364E1,-1.7560953E1,-4.8157594E-1],"split_indices":[5,1,1,0,2,6,0,0,0,0,0,0,0,0,0],"split_type":[0,0,0,0,0,0,0,0,0,0,0,0,0,0,0],"sum_hessian":[2.895E3,2.756E3,1.39E2,1.397E3,1.359E3,1.16E2,2.3E1,1.064E3,3.33E2,1.358E3,1E0,1.15E2,1E0,1.9E1,4E0],"tree_param":{"num_deleted":"0","num_feature":"7","num_nodes":"15","size_leaf_vector":"1"}},{"base_weights":[3.7637186E-1,1.603602E-1,3.1286505E1,8.645096E0,-7.8572245E0,-1.6759795E0,2.1984994E0,-3.5821304E-1,-1.1718986E1],"categories":[],"categories_nodes":[],"categories_segments":[],"categories_sizes":[],"default_left":[0,0,0,0,0,0,0,0,0],"id":52,"left_children":[1,3,-1,5,7,-1,-1,-1,-1],"loss_changes":[1.954333E5,1.9700633E5,0E0,4.7719888E5,6.955497E5,0E0,0E0,0E0,0E0],"parents":[2147483647,0,0,1,1,3,3,4,4],"right_children":[2,4,-1,6,8,-1,-1,-1,-1],"split_conditions":[1.1776E4,4E0,3.1286505E1,1E0,3.292E3,-1.6759795E0,2.1984994E0,-3.5821304E-1,-1.1718986E1],"split_indices":[6,5,0,5,6,0,0,0,0],"split_type":[0,0,0,0,0,0,0,0,0],"sum_hessian":[2.895E3,2.894E3,1E0,1.406E3,1.488E3,4.84E2,9.22E2,1.433E3,5.5E1],"tree_param":{"num_deleted":"0","num_feature":"7","num_nodes":"9","size_leaf_vector":"1"}},{"base_weights":[3.4554923E-1,-9.454681E-1,5.247927E1,-1.2548275E0,1.7390796E2,1.1153205E2,-6.390911E0,-1.4398582E0,2.3670986E-1,-8.610944E0,6.069888E1,4.9879208E1,5.963917E0,-4.65151E0,3.2623135E1],"categories":[],"categories_nodes":[],"categories_segments":[],"categories_sizes":[],"default_left":[0,0,0,0,0,0,0,0,0,0,0,0,0,0,0],"id":53,"left_children":[1,3,5,7,9,11,13,-1,-1,-1,-1,-1,-1,-1,-1],"loss_changes":[1.9496644E5,1.5313789E5,2.4406412E5,1.3442498E5,6.153102E5,6.736139E5,4.956378E5,0E0,0E0,0E0,0E0,0E0,0E0,0E0,0E0],"parents":[2147483647,0,0,1,1,2,2,3,3,4,4,5,5,6,6],"right_children":[2,4,6,8,10,12,14,-1,-1,-1,-1,-1,-1,-1,-1],"split_conditions":[9.513004E1,2.38E2,2E0,1.26854725E1,5.502362E1,5.9093086E1,2.737698E2,-1.4398582E0,2.3670986E-1,-8.610944E0,6.069888E1,4.9879208E1,5.963917E0,-4.65151E0,3.2623135E1],"split_indices":[1,2,5,0,0,0,0,0,0,0,0,0,0,0,0],"split_type":[0,0,0,0,0,0,0,0,0,0,0,0,0,0,0],"sum_hessian":[2.895E3,2.826E3,6.9E1,2.822E3,4E0,3.4E1,3.5E1,6.09E2,2.213E3,3E0,1E0,3E0,3.1E1,3.2E1,3E0],"tree_param":{"num_deleted":"0","num_feature":"7","num_nodes":"15","size_leaf_vector":"1"}},{"base_weights":[3.5750538E-1,-5.070238E-1,6.9053635E1,1.5639088E1,-3.9995284E0,3.3822424E2,-7.5814905E0,7.3895633E-1,1.8963385E1,-1.4044791E-1,-4.321781E0,6.634813E1,1.0373791E0,-2.14661E1,3.4137673E0],"categories":[],"categories_nodes":[],"categories_segments":[],"categories_sizes":[],"default_left":[0,0,0,0,0,0,0,0,0,0,0,0,0,0,0],"id":54,"left_children":[1,3,5,7,9,11,13,-1,-1,-1,-1,-1,-1,-1,-1],"loss_changes":[1.720279E5,1.6139539E5,7.4516944E5,7.29204E5,2.3941206E5,8.462025E5,2.5786434E5,0E0,0E0,0E0,0E0,0E0,0E0,0E0,0E0],"parents":[2147483647,0,0,1,1,2,2,3,3,4,4,5,5,6,6],"right_children":[2,4,6,8,10,12,14,-1,-1,-1,-1,-1,-1,-1,-1],"split_conditions":[5.996E3,1E0,1.1969138E2,7.730019E1,6.0442593E1,2E0,8.389326E1,7.3895633E-1,1.8963385E1,-1.4044791E-1,-4.321781E0,6.634813E1,1.0373791E0,-2.14661E1,3.4137673E0],"split_indices":[6,3,0,1,1,5,1,0,0,0,0,0,0,0,0],"split_type":[0,0,0,0,0,0,0,0,0,0,0,0,0,0,0],"sum_hessian":[2.895E3,2.86E3,3.5E1,5.08E2,2.352E3,7E0,2.8E1,4.86E2,2.2E1,2.207E3,1.45E2,3E0,4E0,4E0,2.4E1],"tree_param":{"num_deleted":"0","num_feature":"7","num_nodes":"15","size_leaf_vector":"1"}},{"base_weights":[3.440515E-1,-2.7076585E0,1.9504553E1,-3.8550694E0,5.8563072E1,3.8262024E2,1.2970588E1,-2.8053835E-1,-4.8754025E0,7.162841E-1,2.6907927E1,1.4838196E2,-4.8216243E0,-1.9262297E0,5.933741E0],"categories":[],"categories_nodes":[],"categories_segments":[],"categories_sizes":[],"default_left":[0,0,0,0,0,0,0,0,0,0,0,0,0,0,0],"id":55,"left_children":[1,3,5,7,9,11,13,-1,-1,-1,-1,-1,-1,-1,-1],"loss_changes":[1.693886E5,1.7591219E5,9.393262E5,1.15519766E5,4.958193E5,3.3926022E6,5.8700125E5,0E0,0E0,0E0,0E0,0E0,0E0,0E0,0E0],"parents":[2147483647,0,0,1,1,2,2,3,3,4,4,5,5,6,6],"right_children":[2,4,6,8,10,12,14,-1,-1,-1,-1,-1,-1,-1,-1],"split_conditions":[1.573E3,1.65E2,8.4E1,1.399E3,9.41E2,1E0,3E0,-2.8053835E-1,-4.8754025E0,7.162841E-1,2.6907927E1,1.4838196E2,-4.8216243E0,-1.9262297E0,5.933741E0],"split_indices":[6,2,2,6,6,3,3,0,0,0,0,0,0,0,0],"split_type":[0,0,0,0,0,0,0,0,0,0,0,0,0,0,0],"sum_hessian":[2.895E3,2.498E3,3.97E2,2.453E3,4.5E1,6E0,3.91E2,2.398E3,5.5E1,3.7E1,8E0,1E0,5E0,2.31E2,1.6E2],"tree_param":{"num_deleted":"0","num_feature":"7","num_nodes":"15","size_leaf_vector":"1"}},{"base_weights":[3.6836132E-1,-1.2411585E1,4.6497684E0,-7.518163E0,-3.637995E1,4.20801E0,3.2234354E2,-2.3417017E0,-5.050877E-1,-3.8104584E0,8.701271E0,2.5240133E0,-6.378492E-2,-7.9300876E0,5.6281616E1],"categories":[],"categories_nodes":[],"categories_segments":[],"categories_sizes":[],"default_left":[0,0,0,0,0,0,0,0,0,0,0,0,0,0,0],"id":56,"left_children":[1,3,5,7,9,11,13,-1,-1,-1,-1,-1,-1,-1,-1],"loss_changes":[1.5851569E5,8.499437E4,3.031894E5,2.3614074E4,2.9490875E4,2.2097589E5,3.3438528E5,0E0,0E0,0E0,0E0,0E0,0E0,0E0,0E0],"parents":[2147483647,0,0,1,1,2,2,3,3,4,4,5,5,6,6],"right_children":[2,4,6,8,10,12,14,-1,-1,-1,-1,-1,-1,-1,-1],"split_conditions":[9.6E1,5.0559685E1,2.38E2,1E0,2E1,1E0,3.6762245E1,-2.3417017E0,-5.050877E-1,-3.8104584E0,8.701271E0,2.5240133E0,-6.378492E-2,-7.9300876E0,5.6281616E1],"split_indices":[6,0,2,3,5,3,0,0,0,0,0,0,0,0,0],"split_type":[0,0,0,0,0,0,0,0,0,0,0,0,0,0,0],"sum_hessian":[2.895E3,7.26E2,2.169E3,6.04E2,1.22E2,2.167E3,2E0,8E1,5.24E2,1.21E2,1E0,4.05E2,1.762E3,1E0,1E0],"tree_param":{"num_deleted":"0","num_feature":"7","num_nodes":"15","size_leaf_vector":"1"}},{"base_weights":[3.497756E-1,1.5632245E-1,2.8019836E1,1.7651888E0,-3.1516478E1,6.331651E-2,7.490041E0,-1.0753139E0,-1.3142458E1],"categories":[],"categories_nodes":[],"categories_segments":[],"categories_sizes":[],"default_left":[0,0,0,0,0,0,0,0,0],"id":57,"left_children":[1,3,-1,5,7,-1,-1,-1,-1],"loss_changes":[1.5673869E5,1.4757702E5,0E0,2.2812405E5,2.8900638E5,0E0,0E0,0E0,0E0],"parents":[2147483647,0,0,1,1,3,3,4,4],"right_children":[2,4,-1,6,8,-1,-1,-1,-1],"split_conditions":[1.1776E4,1.6E1,2.8019836E1,1.74E2,4.539584E1,6.331651E-2,7.490041E0,-1.0753139E0,-1.3142458E1],"split_indices":[6,5,0,2,1,0,0,0,0],"split_type":[0,0,0,0,0,0,0,0,0],"sum_hessian":[2.895E3,2.894E3,1E0,2.755E3,1.39E2,2.714E3,4.1E1,1.16E2,2.3E1],"tree_param":{"num_deleted":"0","num_feature":"7","num_nodes":"9","size_leaf_vector":"1"}},{"base_weights":[3.2217067E-1,-2.8473551E0,1.644213E1,-1.3189226E-1,-4.811732E1,3.6449756E2,1.1223341E1,-1.3620152E-1,1.9950891E1,-4.0025344E0,-2.5374044E1,1.408335E2,-4.419784E0,2.5043692E1,4.9449402E-1],"categories":[],"categories_nodes":[],"categories_segments":[],"categories_sizes":[],"default_left":[0,0,0,0,0,0,0,0,0,0,0,0,0,0,0],"id":58,"left_children":[1,3,5,7,9,11,13,-1,-1,-1,-1,-1,-1,-1,-1],"loss_changes":[1.4801105E5,2.9760456E5,8.6052856E5,5.6142825E5,2.177979E5,3.0485262E6,7.046446E5,0E0,0E0,0E0,0E0,0E0,0E0,0E0,0E0],"parents":[2147483647,0,0,1,1,2,2,3,3,4,4,5,5,6,6],"right_children":[2,4,6,8,10,12,14,-1,-1,-1,-1,-1,-1,-1,-1],"split_conditions":[1.339E3,1.055E3,8.4E1,4.539584E1,1.61E2,1E0,1.368E3,-1.3620152E-1,1.9950891E1,-4.0025344E0,-2.5374044E1,1.408335E2,-4.419784E0,2.5043692E1,4.9449402E-1],"split_indices":[6,6,2,1,2,3,6,0,0,0,0,0,0,0,0],"split_type":[0,0,0,0,0,0,0,0,0,0,0,0,0,0,0],"sum_hessian":[2.895E3,2.42E3,4.75E2,2.284E3,1.36E2,6E0,4.69E2,2.271E3,1.3E1,1.32E2,4E0,1E0,5E0,1.1E1,4.58E2],"tree_param":{"num_deleted":"0","num_feature":"7","num_nodes":"15","size_leaf_vector":"1"}},{"base_weights":[3.425719E-1,-1.5438513E1,3.515658E0,-7.3419337E0,-8.573192E1,4.8320004E1,-2.8230433E0,-3.468605E-1,-1.5667793E1,-1.38775425E1,-1.1914033E0,-2.599614E0,1.0883127E1,-4.307857E-2,-8.19921E0],"categories":[],"categories_nodes":[],"categories_segments":[],"categories_sizes":[],"default_left":[0,0,0,0,0,0,0,0,0,0,0,0,0,0,0],"id":59,"left_children":[1,3,5,7,9,11,13,-1,-1,-1,-1,-1,-1,-1,-1],"loss_changes":[1.4507073E5,2.7540162E5,6.851477E5,2.5165089E5,1.9412453E5,1.3474212E6,4.0034106E5,0E0,0E0,0E0,0E0,0E0,0E0,0E0,0E0],"parents":[2147483647,0,0,1,1,2,2,3,3,4,4,5,5,6,6],"right_children":[2,4,6,8,10,12,14,-1,-1,-1,-1,-1,-1,-1,-1],"split_conditions":[1E0,6.2479572E1,3E0,3.292E3,8.389326E1,2.5402697E1,3.292E3,-3.468605E-1,-1.5667793E1,-1.38775425E1,-1.1914033E0,-2.599614E0,1.0883127E1,-4.307857E-2,-8.19921E0],"split_indices":[5,1,5,6,1,1,6,0,0,0,0,0,0,0,0],"split_type":[0,0,0,0,0,0,0,0,0,0,0,0,0,0,0],"sum_hessian":[2.895E3,4.84E2,2.411E3,4.35E2,4.9E1,2.98E2,2.113E3,4.25E2,1E1,2.8E1,2.1E1,1.34E2,1.64E2,2.052E3,6.1E1],"tree_param":{"num_deleted":"0","num_feature":"7","num_nodes":"15","size_leaf_vector":"1"}},{"base_weights":[2.9759637E-1,1.11142464E-1,2.7004084E1,6.9419923E0,-6.3436036E0,-2.5761908E-1,3.3142903E0,-2.7957392E-1,-9.7081E0],"categories":[],"categories_nodes":[],"categories_segments":[],"categories_sizes":[],"default_left":[0,0,0,0,0,0,0,0,0],"id":60,"left_children":[1,3,-1,5,7,-1,-1,-1,-1],"loss_changes":[1.4562339E5,1.2768865E5,0E0,3.509702E5,4.7907344E5,0E0,0E0,0E0,0E0],"parents":[2147483647,0,0,1,1,3,3,4,4],"right_children":[2,4,-1,6,8,-1,-1,-1,-1],"split_conditions":[1.1776E4,4E0,2.7004084E1,1.15E2,3.292E3,-2.5761908E-1,3.3142903E0,-2.7957392E-1,-9.7081E0],"split_indices":[6,5,0,2,6,0,0,0,0],"split_type":[0,0,0,0,0,0,0,0,0],"sum_hessian":[2.895E3,2.894E3,1E0,1.406E3,1.488E3,1.032E3,3.74E2,1.433E3,5.5E1],"tree_param":{"num_deleted":"0","num_feature":"7","num_nodes":"9","size_leaf_vector":"1"}},{"base_weights":[2.747686E-1,-2.487821E0,1.7620087E1,-1.8757252E-1,-2.6923077E1,3.4311685E2,1.1762695E1,-1.2819615E-1,1.7742952E1,-2.0889013E0,-2.0323683E1,1.3380797E2,-4.5723534E0,-1.6629874E0,5.260315E0],"categories":[],"categories_nodes":[],"categories_segments":[],"categories_sizes":[],"default_left":[0,0,0,0,0,0,0,0,0,0,0,0,0,0,0],"id":61,"left_children":[1,3,5,7,9,11,13,-1,-1,-1,-1,-1,-1,-1,-1],"loss_changes":[1.3881436E5,1.4045666E5,7.547756E5,4.4439075E5,2.2449058E5,2.7693535E6,4.5542444E5,0E0,0E0,0E0,0E0,0E0,0E0,0E0,0E0],"parents":[2147483647,0,0,1,1,2,2,3,3,4,4,5,5,6,6],"right_children":[2,4,6,8,10,12,14,-1,-1,-1,-1,-1,-1,-1,-1],"split_conditions":[1.573E3,1.055E3,8.4E1,4.539584E1,1.6E2,1E0,3E0,-1.2819615E-1,1.7742952E1,-2.0889013E0,-2.0323683E1,1.3380797E2,-4.5723534E0,-1.6629874E0,5.260315E0],"split_indices":[6,6,2,1,2,3,3,0,0,0,0,0,0,0,0],"split_type":[0,0,0,0,0,0,0,0,0,0,0,0,0,0,0],"sum_hessian":[2.895E3,2.498E3,3.97E2,2.284E3,2.14E2,6E0,3.91E2,2.271E3,1.3E1,2.08E2,6E0,1E0,5E0,2.31E2,1.6E2],"tree_param":{"num_deleted":"0","num_feature":"7","num_nodes":"15","size_leaf_vector":"1"}},{"base_weights":[2.9150137E-1,-1.5039479E1,3.3741026E0,-4.8344054E0,-6.513473E1,1.3502014E0,1.122661E2,-7.820899E-1,1.9457317E1,-2.0098738E1,-3.6626441E0,-1.957241E-1,2.2534285E0,2.9494726E1,-1.3679346E0],"categories":[],"categories_nodes":[],"categories_segments":[],"categories_sizes":[],"default_left":[0,0,0,0,0,0,0,0,0,0,0,0,0,0,0],"id":62,"left_children":[1,3,5,7,9,11,13,-1,-1,-1,-1,-1,-1,-1,-1],"loss_changes":[1.3691367E5,2.4762956E5,5.31421E5,2.4211564E5,3.1021844E5,1.660284E5,1.0163805E6,0E0,0E0,0E0,0E0,0E0,0E0,0E0,0E0],"parents":[2147483647,0,0,1,1,2,2,3,3,4,4,5,5,6,6],"right_children":[2,4,6,8,10,12,14,-1,-1,-1,-1,-1,-1,-1,-1],"split_conditions":[1E0,1.795E3,4.665E3,2.218213E2,6.105239E1,1.339E3,2E0,-7.820899E-1,1.9457317E1,-2.0098738E1,-3.6626441E0,-1.957241E-1,2.2534285E0,2.9494726E1,-1.3679346E0],"split_indices":[5,6,6,0,0,6,5,0,0,0,0,0,0,0,0],"split_type":[0,0,0,0,0,0,0,0,0,0,0,0,0,0,0],"sum_hessian":[2.895E3,4.84E2,2.411E3,4.03E2,8.1E1,2.368E3,4.3E1,3.98E2,5E0,1.3E1,6.8E1,2.049E3,3.19E2,1.7E1,2.6E1],"tree_param":{"num_deleted":"0","num_feature":"7","num_nodes":"15","size_leaf_vector":"1"}},{"base_weights":[2.7101806E-1,9.283584E-2,2.5805426E1,-1.2163763E1,3.376963E0,-2.4472228E-1,-4.490491E0,-1.2615963E0,8.192954E-1],"categories":[],"categories_nodes":[],"categories_segments":[],"categories_sizes":[],"default_left":[0,0,0,0,0,0,0,0,0],"id":63,"left_children":[1,3,-1,5,7,-1,-1,-1,-1],"loss_changes":[1.3299623E5,1.1657128E5,0E0,1.9458606E5,1.7602114E5,0E0,0E0,0E0,0E0],"parents":[2147483647,0,0,1,1,3,3,4,4],"right_children":[2,4,-1,6,8,-1,-1,-1,-1],"split_conditions":[1.1776E4,1.26854725E1,2.5805426E1,3.65E2,1.29E2,-2.4472228E-1,-4.490491E0,-1.2615963E0,8.192954E-1],"split_indices":[6,0,0,6,6,0,0,0,0],"split_type":[0,0,0,0,0,0,0,0,0],"sum_hessian":[2.895E3,2.894E3,1E0,6.11E2,2.283E3,4.72E2,1.39E2,5.28E2,1.755E3],"tree_param":{"num_deleted":"0","num_feature":"7","num_nodes":"9","size_leaf_vector":"1"}},{"base_weights":[2.5103918E-1,8.176384E-2,2.4515156E1,-1.3806894E1,2.875591E0,-6.8592596E-1,-7.9962387E0,3.9436479E0,-2.2993167E-1],"categories":[],"categories_nodes":[],"categories_segments":[],"categories_sizes":[],"default_left":[0,0,0,0,0,0,0,0,0],"id":64,"left_children":[1,3,-1,5,7,-1,-1,-1,-1],"loss_changes":[1.2003541E5,1.1237298E5,0E0,2.2236925E5,4.5624994E5,0E0,0E0,0E0,0E0],"parents":[2147483647,0,0,1,1,3,3,4,4],"right_children":[2,4,-1,6,8,-1,-1,-1,-1],"split_conditions":[1.1776E4,1E0,2.4515156E1,6.445795E1,3E0,-6.8592596E-1,-7.9962387E0,3.9436479E0,-2.2993167E-1],"split_indices":[6,5,0,1,5,0,0,0,0],"split_type":[0,0,0,0,0,0,0,0,0],"sum_hessian":[2.895E3,2.894E3,1E0,4.84E2,2.41E3,4.39E2,4.5E1,2.98E2,2.112E3],"tree_param":{"num_deleted":"0","num_feature":"7","num_nodes":"9","size_leaf_vector":"1"}},{"base_weights":[2.3268424E-1,7.187068E-2,2.3289398E1,1.4356034E0,-2.6774696E1,4.1248444E-2,6.7538757E0,-8.213981E-1,-1.1614257E1],"categories":[],"categories_nodes":[],"categories_segments":[],"categories_sizes":[],"default_left":[0,0,0,0,0,0,0,0,0],"id":65,"left_children":[1,3,-1,5,7,-1,-1,-1,-1],"loss_changes":[1.0833737E5,1.0602885E5,0E0,1.8636425E5,2.3126844E5,0E0,0E0,0E0,0E0],"parents":[2147483647,0,0,1,1,3,3,4,4],"right_children":[2,4,-1,6,8,-1,-1,-1,-1],"split_conditions":[1.1776E4,1.6E1,2.3289398E1,1.74E2,4.539584E1,4.1248444E-2,6.7538757E0,-8.213981E-1,-1.1614257E1],"split_indices":[6,5,0,2,1,0,0,0,0],"split_type":[0,0,0,0,0,0,0,0,0],"sum_hessian":[2.895E3,2.894E3,1E0,2.755E3,1.39E2,2.714E3,4.1E1,1.16E2,2.3E1],"tree_param":{"num_deleted":"0","num_feature":"7","num_nodes":"9","size_leaf_vector":"1"}},{"base_weights":[2.1550764E-1,-7.273738E-1,3.8291367E1,7.323733E-1,-2.7155716E1,1.5116554E1,1.4904326E2,-1.7370733E-2,2.0219877E1,6.122241E1,-4.46065E0,4.336538E0,-3.8414608E1,7.8117294E0,2.7136585E1],"categories":[],"categories_nodes":[],"categories_segments":[],"categories_sizes":[],"default_left":[0,0,0,0,0,0,0,0,0,0,0,0,0,0,0],"id":66,"left_children":[1,3,5,7,9,11,13,-1,-1,-1,-1,-1,-1,-1,-1],"loss_changes":[1.0399721E5,1.0908187E5,1.7741275E5,4.892552E5,1.6786454E6,6.821019E5,8.291181E4,0E0,0E0,0E0,0E0,0E0,0E0,0E0,0E0],"parents":[2147483647,0,0,1,1,2,2,3,3,4,4,5,5,6,6],"right_children":[2,4,6,8,10,12,14,-1,-1,-1,-1,-1,-1,-1,-1],"split_conditions":[9.513004E1,6.0442593E1,2.737698E2,4.347E3,8.4E1,2.4666048E2,2E0,-1.7370733E-2,2.0219877E1,6.122241E1,-4.46065E0,4.336538E0,-3.8414608E1,7.8117294E0,2.7136585E1],"split_indices":[1,1,0,6,2,0,5,0,0,0,0,0,0,0,0],"split_type":[0,0,0,0,0,0,0,0,0,0,0,0,0,0,0],"sum_hessian":[2.895E3,2.826E3,6.9E1,2.679E3,1.47E2,5.8E1,1.1E1,2.668E3,1.1E1,3E0,1.44E2,5.5E1,3E0,8E0,3E0],"tree_param":{"num_deleted":"0","num_feature":"7","num_nodes":"15","size_leaf_vector":"1"}},{"base_weights":[2.2083233E-1,-6.9018817E0,4.8824024E0,-2.5723078E0,-2.7244543E1,4.303844E0,5.086797E1,-2.0124808E-1,-6.7960486E0,-2.441341E0,-9.2494E0,-2.4103198E0,8.151294E-1],"categories":[],"categories_nodes":[],"categories_segments":[],"categories_sizes":[],"default_left":[0,0,0,0,0,0,0,0,0,0,0,0,0],"id":67,"left_children":[1,3,5,7,9,11,-1,-1,-1,-1,-1,-1,-1],"loss_changes":[9.618967E4,1.0086393E5,5.0818538E5,3.4492582E4,3.487264E4,1.9146214E5,0E0,0E0,0E0,0E0,0E0,0E0,0E0],"parents":[2147483647,0,0,1,1,2,2,3,3,4,4,5,5],"right_children":[2,4,6,8,10,12,-1,-1,-1,-1,-1,-1,-1],"split_conditions":[2.1E2,5.756066E1,2.38E2,1.72E2,1.83E2,1.26854725E1,5.086797E1,-2.0124808E-1,-6.7960486E0,-2.441341E0,-9.2494E0,-2.4103198E0,8.151294E-1],"split_indices":[6,0,2,2,2,0,0,0,0,0,0,0,0],"split_type":[0,0,0,0,0,0,0,0,0,0,0,0,0],"sum_hessian":[2.895E3,1.145E3,1.75E3,9.45E2,2E2,1.749E3,1E0,9.38E2,7E0,1.93E2,7E0,2.08E2,1.541E3],"tree_param":{"num_deleted":"0","num_feature":"7","num_nodes":"13","size_leaf_vector":"1"}},{"base_weights":[2.093107E-1,-1.2687713E1,2.802531E0,-2.1230699E-1,-4.5364243E1,1.1301665E0,9.278046E1,-5.424166E-1,2.2457563E1,-8.078132E0,-1.9684244E0,-1.7080878E-1,1.93092E0,6.2541595E1,5.2526007E0],"categories":[],"categories_nodes":[],"categories_segments":[],"categories_sizes":[],"default_left":[0,0,0,0,0,0,0,0,0,0,0,0,0,0,0],"id":68,"left_children":[1,3,5,7,9,11,13,-1,-1,-1,-1,-1,-1,-1,-1],"loss_changes":[9.6891766E4,1.9770208E5,3.6284297E5,4.1360828E5,1.2028428E5,1.2226562E5,9.1055125E5,0E0,0E0,0E0,0E0,0E0,0E0,0E0,0E0],"parents":[2147483647,0,0,1,1,2,2,3,3,4,4,5,5,6,6],"right_children":[2,4,6,8,10,12,14,-1,-1,-1,-1,-1,-1,-1,-1],"split_conditions":[1E0,1.131E3,4.665E3,1.8381122E2,1.1969138E2,1.339E3,4.7479755E1,-5.424166E-1,2.2457563E1,-8.078132E0,-1.9684244E0,-1.7080878E-1,1.93092E0,6.2541595E1,5.2526007E0],"split_indices":[5,6,6,0,0,6,1,0,0,0,0,0,0,0,0],"split_type":[0,0,0,0,0,0,0,0,0,0,0,0,0,0,0],"sum_hessian":[2.895E3,4.84E2,2.411E3,3.51E2,1.33E2,2.368E3,4.3E1,3.44E2,7E0,5.5E1,7.8E1,2.049E3,3.19E2,2E0,4.1E1],"tree_param":{"num_deleted":"0","num_feature":"7","num_nodes":"15","size_leaf_vector":"1"}},{"base_weights":[2.1649551E-1,1.4528222E0,-2.4131857E1,5.2883404E-1,6.1169468E1,-7.114622E0,-1.0608538E2,-2.3848395E-1,1.5443815E0,9.667245E1,1.5504113E0,-1.0789051E0,2.0955957E1,-1.3279129E1,2.1955316E0],"categories":[],"categories_nodes":[],"categories_segments":[],"categories_sizes":[],"default_left":[0,0,0,0,0,0,0,0,0,0,0,0,0,0,0],"id":69,"left_children":[1,3,5,7,9,11,13,-1,-1,-1,-1,-1,-1,-1,-1],"loss_changes":[8.721196E4,1.5209197E5,1.9449236E5,1.18067086E5,1.7218165E6,9.541096E4,8.4982125E4,0E0,0E0,0E0,0E0,0E0,0E0,0E0,0E0],"parents":[2147483647,0,0,1,1,2,2,3,3,4,4,5,5,6,6],"right_children":[2,4,6,8,10,12,14,-1,-1,-1,-1,-1,-1,-1,-1],"split_conditions":[1.6E1,1.74E2,4.539584E1,1.339E3,1.75E2,2.142E3,1.3545634E2,-2.3848395E-1,1.5443815E0,9.667245E1,1.5504113E0,-1.0789051E0,2.0955957E1,-1.3279129E1,2.1955316E0],"split_indices":[5,2,1,6,2,6,0,0,0,0,0,0,0,0,0],"split_type":[0,0,0,0,0,0,0,0,0,0,0,0,0,0,0],"sum_hessian":[2.895E3,2.756E3,1.39E2,2.715E3,4.1E1,1.16E2,2.3E1,2.272E3,4.43E2,1E0,4E1,1.15E2,1E0,1.9E1,4E0],"tree_param":{"num_deleted":"0","num_feature":"7","num_nodes":"15","size_leaf_vector":"1"}},{"base_weights":[2.3225057E-1,5.9785484E-3,1.3106154E2,2.0279242E-1,-1.895934E1,-7.745091E1,4.8255566E1,5.74561E-1,-5.045291E-1,-8.979427E0,-2.0210414E0],"categories":[],"categories_nodes":[],"categories_segments":[],"categories_sizes":[],"default_left":[0,0,0,0,0,0,0,0,0,0,0],"id":70,"left_children":[1,3,5,7,-1,9,-1,-1,-1,-1,-1],"loss_changes":[8.572952E4,1.07955695E5,4.0382888E5,8.409669E4,0E0,1.01138086E3,0E0,0E0,0E0,0E0,0E0],"parents":[2147483647,0,0,1,1,2,2,3,3,5,5],"right_children":[2,4,6,8,-1,10,-1,-1,-1,-1,-1],"split_conditions":[2.38E2,2.19E2,5.502362E1,4E0,-1.895934E1,3.6762245E1,4.8255566E1,5.74561E-1,-5.045291E-1,-8.979427E0,-2.0210414E0],"split_indices":[2,2,0,5,0,0,0,0,0,0,0],"split_type":[0,0,0,0,0,0,0,0,0,0,0],"sum_hessian":[2.895E3,2.891E3,4E0,2.889E3,2E0,3E0,1E0,1.405E3,1.484E3,2E0,1E0],"tree_param":{"num_deleted":"0","num_feature":"7","num_nodes":"11","size_leaf_vector":"1"}},{"base_weights":[2.1536636E-1,-1.2119733E1,2.6955934E0,-3.4813023E0,-5.4532005E1,3.264418E1,-1.5415509E0,-6.0226935E-1,1.6610142E1,-1.7669798E1,-2.895439E0,-2.7716827E0,8.183262E0,6.2467676E-2,-7.3246775E0],"categories":[],"categories_nodes":[],"categories_segments":[],"categories_sizes":[],"default_left":[0,0,0,0,0,0,0,0,0,0,0,0,0,0,0],"id":71,"left_children":[1,3,5,7,9,11,13,-1,-1,-1,-1,-1,-1,-1,-1],"loss_changes":[8.863245E4,1.7750227E5,3.0612466E5,1.7511466E5,2.5111039E5,8.900181E5,3.2841306E5,0E0,0E0,0E0,0E0,0E0,0E0,0E0,0E0],"parents":[2147483647,0,0,1,1,2,2,3,3,4,4,5,5,6,6],"right_children":[2,4,6,8,10,12,14,-1,-1,-1,-1,-1,-1,-1,-1],"split_conditions":[1E0,1.795E3,3E0,2.218213E2,6.105239E1,2.5402697E1,3.292E3,-6.0226935E-1,1.6610142E1,-1.7669798E1,-2.895439E0,-2.7716827E0,8.183262E0,6.2467676E-2,-7.3246775E0],"split_indices":[5,6,5,0,0,1,6,0,0,0,0,0,0,0,0],"split_type":[0,0,0,0,0,0,0,0,0,0,0,0,0,0,0],"sum_hessian":[2.895E3,4.84E2,2.411E3,4.03E2,8.1E1,2.98E2,2.113E3,3.98E2,5E0,1.3E1,6.8E1,1.34E2,1.64E2,2.052E3,6.1E1],"tree_param":{"num_deleted":"0","num_feature":"7","num_nodes":"15","size_leaf_vector":"1"}},{"base_weights":[1.9161624E-1,4.8131835E-2,2.077895E1,-1.6860607E-1,1.2535636E2,1.4843029E-3,-1.767739E1,-7.2502794E0,4.583965E1],"categories":[],"categories_nodes":[],"categories_segments":[],"categories_sizes":[],"default_left":[0,0,0,0,0,0,0,0,0],"id":72,"left_children":[1,3,-1,5,7,-1,-1,-1,-1],"loss_changes":[8.625332E4,7.864657E4,0E0,9.366547E4,3.6271022E5,0E0,0E0,0E0,0E0],"parents":[2147483647,0,0,1,1,3,3,4,4],"right_children":[2,4,-1,6,8,-1,-1,-1,-1],"split_conditions":[1.1776E4,2.38E2,2.077895E1,2.19E2,5.502362E1,1.4843029E-3,-1.767739E1,-7.2502794E0,4.583965E1],"split_indices":[6,2,0,2,0,0,0,0,0],"split_type":[0,0,0,0,0,0,0,0,0],"sum_hessian":[2.895E3,2.894E3,1E0,2.89E3,4E0,2.888E3,2E0,3E0,1E0],"tree_param":{"num_deleted":"0","num_feature":"7","num_nodes":"9","size_leaf_vector":"1"}},{"base_weights":[1.8685131E-1,-2.6791265E0,9.584612E0,-1.7606872E0,-8.3247665E1,-2.6881006E1,2.3249023E1,-3.7155864E-1,6.9109397E0,-1.7967161E0,-1.6469856E1,-1.4158794E0,-6.986E0,1.0847637E1,-2.6728603E-1],"categories":[],"categories_nodes":[],"categories_segments":[],"categories_sizes":[],"default_left":[0,0,0,0,0,0,0,0,0,0,0,0,0,0,0],"id":73,"left_children":[1,3,5,7,9,11,13,-1,-1,-1,-1,-1,-1,-1,-1],"loss_changes":[7.802589E4,1.6412745E5,3.3796134E5,3.0449912E5,1.2996972E5,1.0016664E5,1.0894518E6,0E0,0E0,0E0,0E0,0E0,0E0,0E0,0E0],"parents":[2147483647,0,0,1,1,2,2,3,3,4,4,5,5,6,6],"right_children":[2,4,6,8,10,12,14,-1,-1,-1,-1,-1,-1,-1,-1],"split_conditions":[1.21E2,4.665E3,3.812646E1,6.741754E1,1.13E2,2.8570173E1,6.005395E1,-3.7155864E-1,6.9109397E0,-1.7967161E0,-1.6469856E1,-1.4158794E0,-6.986E0,1.0847637E1,-2.6728603E-1],"split_indices":[2,6,0,1,2,1,0,0,0,0,0,0,0,0,0],"split_type":[0,0,0,0,0,0,0,0,0,0,0,0,0,0,0],"sum_hessian":[2.895E3,2.219E3,6.76E2,2.195E3,2.4E1,1.84E2,4.92E2,2.137E3,5.8E1,1.4E1,1E1,1.43E2,4.1E1,1.14E2,3.78E2],"tree_param":{"num_deleted":"0","num_feature":"7","num_nodes":"15","size_leaf_vector":"1"}},{"base_weights":[1.6486764E-1,2.8459169E-2,1.975337E1,-1.772934E-1,1.189889E2,-6.273071E-4,-1.6481077E1,-6.9069047E0,4.3561035E1],"categories":[],"categories_nodes":[],"categories_segments":[],"categories_sizes":[],"default_left":[0,0,0,0,0,0,0,0,0],"id":74,"left_children":[1,3,-1,5,7,-1,-1,-1,-1],"loss_changes":[7.796274E4,7.088033E4,0E0,8.1397016E4,3.2780306E5,0E0,0E0,0E0,0E0],"parents":[2147483647,0,0,1,1,3,3,4,4],"right_children":[2,4,-1,6,8,-1,-1,-1,-1],"split_conditions":[1.1776E4,2.38E2,1.975337E1,2.19E2,5.502362E1,-6.273071E-4,-1.6481077E1,-6.9069047E0,4.3561035E1],"split_indices":[6,2,0,2,0,0,0,0,0],"split_type":[0,0,0,0,0,0,0,0,0],"sum_hessian":[2.895E3,2.894E3,1E0,2.89E3,4E0,2.888E3,2E0,3E0,1E0],"tree_param":{"num_deleted":"0","num_feature":"7","num_nodes":"9","size_leaf_vector":"1"}},{"base_weights":[1.6216719E-1,3.2581083E-2,1.87657E1,-5.9059227E-1,3.864153E1,-8.881687E-3,-6.5087504E0,9.187425E1,-1.3327715E-1],"categories":[],"categories_nodes":[],"categories_segments":[],"categories_sizes":[],"default_left":[0,0,0,0,0,0,0,0,0],"id":75,"left_children":[1,3,-1,5,7,-1,-1,-1,-1],"loss_changes":[7.03572E4,6.967672E4,0E0,9.2228664E4,1.6195696E6,0E0,0E0,0E0,0E0],"parents":[2147483647,0,0,1,1,3,3,4,4],"right_children":[2,4,-1,6,8,-1,-1,-1,-1],"split_conditions":[1.1776E4,1.74E2,1.87657E1,1.368867E2,1.75E2,-8.881687E-3,-6.5087504E0,9.187425E1,-1.3327715E-1],"split_indices":[6,2,0,1,2,0,0,0,0],"split_type":[0,0,0,0,0,0,0,0,0],"sum_hessian":[2.895E3,2.894E3,1E0,2.849E3,4.5E1,2.828E3,2.1E1,1E0,4.4E1],"tree_param":{"num_deleted":"0","num_feature":"7","num_nodes":"9","size_leaf_vector":"1"}},{"base_weights":[1.8185957E-1,-6.144941E-1,3.2340572E1,8.584531E-1,-2.7282629E1,1.19720726E2,6.3328824E0,-1.015841E-1,7.748609E0,5.568109E1,-4.3207397E0,-1.5606359E0,1.07481346E2,-2.7566812E0,1.3010402E1],"categories":[],"categories_nodes":[],"categories_segments":[],"categories_sizes":[],"default_left":[0,0,0,0,0,0,0,0,0,0,0,0,0,0,0],"id":76,"left_children":[1,3,5,7,9,11,13,-1,-1,-1,-1,-1,-1,-1,-1],"loss_changes":[7.4185586E4,1.110701E5,1.5832075E5,3.8498762E5,1.4006885E6,2.0847726E6,2.3435575E5,0E0,0E0,0E0,0E0,0E0,0E0,0E0,0E0],"parents":[2147483647,0,0,1,1,2,2,3,3,4,4,5,5,6,6],"right_children":[2,4,6,8,10,12,14,-1,-1,-1,-1,-1,-1,-1,-1],"split_conditions":[9.513004E1,6.0442593E1,5.9093086E1,2.542E3,8.4E1,5.5900818E1,2.737698E2,-1.015841E-1,7.748609E0,5.568109E1,-4.3207397E0,-1.5606359E0,1.07481346E2,-2.7566812E0,1.3010402E1],"split_indices":[1,1,0,6,2,0,0,0,0,0,0,0,0,0,0],"split_type":[0,0,0,0,0,0,0,0,0,0,0,0,0,0,0],"sum_hessian":[2.895E3,2.826E3,6.9E1,2.679E3,1.47E2,1.5E1,5.4E1,2.616E3,6.3E1,3E0,1.44E2,1.4E1,1E0,4.3E1,1.1E1],"tree_param":{"num_deleted":"0","num_feature":"7","num_nodes":"15","size_leaf_vector":"1"}},{"base_weights":[2.2416455E-1,-1.0081998E1,2.537076E0,-7.7664223E0,-4.989761E1,1.7215479E1,-7.8779405E-1,-2.3315544E0,-4.9872175E-1,-6.1530566E0,-1.1669781E0,1.8280922E1,1.2109752E0,-1.953175E-1,9.592241E0],"categories":[],"categories_nodes":[],"categories_segments":[],"categories_sizes":[],"default_left":[0,0,0,0,0,0,0,0,0,0,0,0,0,0,0],"id":77,"left_children":[1,3,5,7,9,11,13,-1,-1,-1,-1,-1,-1,-1,-1],"loss_changes":[6.905823E4,4.8568594E4,1.1548331E5,2.1620463E4,1.2178328E4,3.6725944E5,2.1770652E5,0E0,0E0,0E0,0E0,0E0,0E0,0E0,0E0],"parents":[2147483647,0,0,1,1,2,2,3,3,4,4,5,5,6,6],"right_children":[2,4,6,8,10,12,14,-1,-1,-1,-1,-1,-1,-1,-1],"split_conditions":[6.3E1,8.989905E1,1E0,1E0,3E0,8.4E1,1.65E2,-2.3315544E0,-4.9872175E-1,-6.1530566E0,-1.1669781E0,1.8280922E1,1.2109752E0,-1.953175E-1,9.592241E0],"split_indices":[6,0,3,3,3,2,2,0,0,0,0,0,0,0,0],"split_type":[0,0,0,0,0,0,0,0,0,0,0,0,0,0,0],"sum_hessian":[2.895E3,5.3E2,2.365E3,5.02E2,2.8E1,4.36E2,1.929E3,7.5E1,4.27E2,2.1E1,7E0,1.2E1,4.24E2,1.907E3,2.2E1],"tree_param":{"num_deleted":"0","num_feature":"7","num_nodes":"15","size_leaf_vector":"1"}},{"base_weights":[2.0821778E-1,-1.040573E1,2.3423622E0,5.2430177E-1,-3.9039803E1,8.4900486E-1,8.269285E1,-4.077042E-1,1.9889174E1,-3.4742553E0,-2.1510538E1,8.0699295E-1,-3.556728E-1,5.720014E1,4.577336E0],"categories":[],"categories_nodes":[],"categories_segments":[],"categories_sizes":[],"default_left":[0,0,0,0,0,0,0,0,0,0,0,0,0,0,0],"id":78,"left_children":[1,3,5,7,9,11,13,-1,-1,-1,-1,-1,-1,-1,-1],"loss_changes":[6.5623695E4,1.5181155E5,2.893505E5,3.2210128E5,9.39107E4,7.53948E4,7.686786E5,0E0,0E0,0E0,0E0,0E0,0E0,0E0,0E0],"parents":[2147483647,0,0,1,1,2,2,3,3,4,4,5,5,6,6],"right_children":[2,4,6,8,10,12,14,-1,-1,-1,-1,-1,-1,-1,-1],"split_conditions":[1E0,1.131E3,4.665E3,1.8381122E2,1.66E2,4E0,4.7479755E1,-4.077042E-1,1.9889174E1,-3.4742553E0,-2.1510538E1,8.0699295E-1,-3.556728E-1,5.720014E1,4.577336E0],"split_indices":[5,6,6,0,2,5,1,0,0,0,0,0,0,0,0],"split_type":[0,0,0,0,0,0,0,0,0,0,0,0,0,0,0],"sum_hessian":[2.895E3,4.84E2,2.411E3,3.51E2,1.33E2,2.368E3,4.3E1,3.44E2,7E0,1.31E2,2E0,8.97E2,1.471E3,2E0,4.1E1],"tree_param":{"num_deleted":"0","num_feature":"7","num_nodes":"15","size_leaf_vector":"1"}},{"base_weights":[2.0698176E-1,1.2610136E-2,1.1259013E2,1.7306048E-1,-1.5455874E1,-6.6022096E0,4.1351955E1,-2.4511325E-1,8.7879324E-1],"categories":[],"categories_nodes":[],"categories_segments":[],"categories_sizes":[],"default_left":[0,0,0,0,0,0,0,0,0],"id":79,"left_children":[1,3,5,7,-1,-1,-1,-1,-1],"loss_changes":[6.3259086E4,7.175132E4,2.9604978E5,6.535602E4,0E0,0E0,0E0,0E0,0E0],"parents":[2147483647,0,0,1,1,2,2,3,3],"right_children":[2,4,6,8,-1,-1,-1,-1,-1],"split_conditions":[2.38E2,2.19E2,5.502362E1,3E0,-1.5455874E1,-6.6022096E0,4.1351955E1,-2.4511325E-1,8.7879324E-1],"split_indices":[2,2,0,3,0,0,0,0,0],"split_type":[0,0,0,0,0,0,0,0,0],"sum_hessian":[2.895E3,2.891E3,4E0,2.889E3,2E0,3E0,1E0,2.215E3,6.74E2],"tree_param":{"num_deleted":"0","num_feature":"7","num_nodes":"9","size_leaf_vector":"1"}},{"base_weights":[1.9316582E-1,1.229283E0,-2.021232E1,4.1120264E-1,5.4102543E1,5.6162114E0,-6.539577E1,-9.676611E-2,2.468961E0,8.6836044E1,1.3063072E0,-1.6909365E-1,3.279762E1,-8.074171E0,6.315578E0],"categories":[],"categories_nodes":[],"categories_segments":[],"categories_sizes":[],"default_left":[0,0,0,0,0,0,0,0,0,0,0,0,0,0,0],"id":80,"left_children":[1,3,5,7,9,11,13,-1,-1,-1,-1,-1,-1,-1,-1],"loss_changes":[6.1253453E4,1.1923061E5,1.6375036E5,9.094637E4,1.3921584E6,2.1255247E5,1.0570928E5,0E0,0E0,0E0,0E0,0E0,0E0,0E0,0E0],"parents":[2147483647,0,0,1,1,2,2,3,3,4,4,5,5,6,6],"right_children":[2,4,6,8,10,12,14,-1,-1,-1,-1,-1,-1,-1,-1],"split_conditions":[1.6E1,1.74E2,2.661951E1,6.741754E1,1.75E2,2.638704E1,1.473931E2,-9.676611E-2,2.468961E0,8.6836044E1,1.3063072E0,-1.6909365E-1,3.279762E1,-8.074171E0,6.315578E0],"split_indices":[5,2,1,1,2,1,0,0,0,0,0,0,0,0,0],"split_type":[0,0,0,0,0,0,0,0,0,0,0,0,0,0,0],"sum_hessian":[2.895E3,2.756E3,1.39E2,2.715E3,4.1E1,8.9E1,5E1,2.57E3,1.45E2,1E0,4E1,8.8E1,1E0,4.5E1,5E0],"tree_param":{"num_deleted":"0","num_feature":"7","num_nodes":"15","size_leaf_vector":"1"}},{"base_weights":[2.1576409E-1,3.0151187E-2,1.0753112E2,1.8082157E-1,-1.451257E1,-6.1681316E1,3.9219044E1,3.3688718E-1,-6.0073584E-1,-6.9780726E0,-1.8691549E0],"categories":[],"categories_nodes":[],"categories_segments":[],"categories_sizes":[],"default_left":[0,0,0,0,0,0,0,0,0,0,0],"id":81,"left_children":[1,3,5,7,-1,9,-1,-1,-1,-1,-1],"loss_changes":[5.7682516E4,6.3276273E4,2.6503028E5,5.7034812E4,0E0,8.8456055E1,0E0,0E0,0E0,0E0,0E0],"parents":[2147483647,0,0,1,1,2,2,3,3,5,5],"right_children":[2,4,6,8,-1,10,-1,-1,-1,-1,-1],"split_conditions":[2.38E2,2.19E2,5.502362E1,6.005395E1,-1.451257E1,3.6762245E1,3.9219044E1,3.3688718E-1,-6.0073584E-1,-6.9780726E0,-1.8691549E0],"split_indices":[2,2,0,0,0,0,0,0,0,0,0],"split_type":[0,0,0,0,0,0,0,0,0,0,0],"sum_hessian":[2.895E3,2.891E3,4E0,2.889E3,2E0,3E0,1E0,1.907E3,9.82E2,2E0,1E0],"tree_param":{"num_deleted":"0","num_feature":"7","num_nodes":"11","size_leaf_vector":"1"}},{"base_weights":[1.995726E-1,-2.972017E0,6.7096434E0,-5.30072E0,6.915197E1,8.219937E1,2.596762E0,-2.9042342E-1,-6.0874248E0,5.5777966E1,3.4261234E0,1.062236E0,3.0200994E1,1.0614527E0,-3.997723E0],"categories":[],"categories_nodes":[],"categories_segments":[],"categories_sizes":[],"default_left":[0,0,0,0,0,0,0,0,0,0,0,0,0,0,0],"id":82,"left_children":[1,3,5,7,9,11,13,-1,-1,-1,-1,-1,-1,-1,-1],"loss_changes":[5.981444E4,3.275436E5,2.9443234E5,2.512693E5,1.0208531E6,7.677278E5,3.0797916E5,0E0,0E0,0E0,0E0,0E0,0E0,0E0,0E0],"parents":[2147483647,0,0,1,1,2,2,3,3,4,4,5,5,6,6],"right_children":[2,4,6,8,10,12,14,-1,-1,-1,-1,-1,-1,-1,-1],"split_conditions":[1.15E2,6.741754E1,1.16E2,5.0073574E1,8.4E1,4.1045086E1,5.4931335E1,-2.9042342E-1,-6.0874248E0,5.5777966E1,3.4261234E0,1.062236E0,3.0200994E1,1.0614527E0,-3.997723E0],"split_indices":[2,1,2,1,2,1,1,0,0,0,0,0,0,0,0],"split_type":[0,0,0,0,0,0,0,0,0,0,0,0,0,0,0],"sum_hessian":[2.895E3,1.947E3,9.48E2,1.887E3,6E1,4.8E1,9E2,1.81E3,7.7E1,3E0,5.7E1,3.7E1,1.1E1,7.58E2,1.42E2],"tree_param":{"num_deleted":"0","num_feature":"7","num_nodes":"15","size_leaf_vector":"1"}},{"base_weights":[2.076371E-1,8.973636E-2,1.7076513E1,-9.161385E0,2.1668E0,-7.132036E-1,-4.404417E0,1.7437707E-1,1.0161582E1],"categories":[],"categories_nodes":[],"categories_segments":[],"categories_sizes":[],"default_left":[0,0,0,0,0,0,0,0,0],"id":83,"left_children":[1,3,-1,5,7,-1,-1,-1,-1],"loss_changes":[5.821992E4,5.5647754E4,0E0,3.7275004E4,9.9318E4,0E0,0E0,0E0,0E0],"parents":[2147483647,0,0,1,1,3,3,4,4],"right_children":[2,4,-1,6,8,-1,-1,-1,-1],"split_conditions":[1.1776E4,6.3E1,1.7076513E1,8.989905E1,1.97E2,-7.132036E-1,-4.404417E0,1.7437707E-1,1.0161582E1],"split_indices":[6,6,0,0,2,0,0,0,0],"split_type":[0,0,0,0,0,0,0,0,0],"sum_hessian":[2.895E3,2.894E3,1E0,5.3E2,2.364E3,5.02E2,2.8E1,2.355E3,9E0],"tree_param":{"num_deleted":"0","num_feature":"7","num_nodes":"9","size_leaf_vector":"1"}},{"base_weights":[1.9457267E-1,-4.803897E-1,2.745063E1,8.402628E-1,-2.6417583E1,1.1142323E2,2.523134E0,-9.355309E-2,6.833398E0,4.8149685E1,-4.138206E0,-1.7008688E0,1.018951E2,-2.8429668E0,1.1580647E1],"categories":[],"categories_nodes":[],"categories_segments":[],"categories_sizes":[],"default_left":[0,0,0,0,0,0,0,0,0,0,0,0,0,0,0],"id":84,"left_children":[1,3,5,7,9,11,13,-1,-1,-1,-1,-1,-1,-1,-1],"loss_changes":[5.3290363E4,9.685831E4,1.4624475E5,3.225935E5,1.0612178E6,1.8822196E6,1.9614636E5,0E0,0E0,0E0,0E0,0E0,0E0,0E0,0E0],"parents":[2147483647,0,0,1,1,2,2,3,3,4,4,5,5,6,6],"right_children":[2,4,6,8,10,12,14,-1,-1,-1,-1,-1,-1,-1,-1],"split_conditions":[9.513004E1,6.119607E1,5.9093086E1,2.542E3,8.4E1,5.5900818E1,2.737698E2,-9.355309E-2,6.833398E0,4.8149685E1,-4.138206E0,-1.7008688E0,1.018951E2,-2.8429668E0,1.1580647E1],"split_indices":[1,1,0,6,2,0,0,0,0,0,0,0,0,0,0],"split_type":[0,0,0,0,0,0,0,0,0,0,0,0,0,0,0],"sum_hessian":[2.895E3,2.826E3,6.9E1,2.69E3,1.36E2,1.5E1,5.4E1,2.622E3,6.8E1,3E0,1.33E2,1.4E1,1E0,4.3E1,1.1E1],"tree_param":{"num_deleted":"0","num_feature":"7","num_nodes":"15","size_leaf_vector":"1"}},{"base_weights":[2.3025548E-1,-9.220238E0,2.1304457E0,-5.140794E0,-7.561899E1,5.805865E-1,6.086575E1,-1.7610449E-1,-1.0483865E1,-1.2594673E1,6.5943704E0,9.944735E-2,-1.6134598E1,3.7937496E1,1.9965206E0],"categories":[],"categories_nodes":[],"categories_segments":[],"categories_sizes":[],"default_left":[0,0,0,0,0,0,0,0,0,0,0,0,0,0,0],"id":85,"left_children":[1,3,5,7,9,11,13,-1,-1,-1,-1,-1,-1,-1,-1],"loss_changes":[5.2025242E4,1.3098322E5,2.1953255E5,1.5414016E5,2.0779222E5,1.5772281E5,8.001121E5,0E0,0E0,0E0,0E0,0E0,0E0,0E0,0E0],"parents":[2147483647,0,0,1,1,2,2,3,3,4,4,5,5,6,6],"right_children":[2,4,6,8,10,12,14,-1,-1,-1,-1,-1,-1,-1,-1],"split_conditions":[1E0,4.5E3,4.347E3,1.49E2,8.662E3,1.2072505E2,6.0442593E1,-1.7610449E-1,-1.0483865E1,-1.2594673E1,6.5943704E0,9.944735E-2,-1.6134598E1,3.7937496E1,1.9965206E0],"split_indices":[5,6,6,2,6,1,1,0,0,0,0,0,0,0,0],"split_type":[0,0,0,0,0,0,0,0,0,0,0,0,0,0,0],"sum_hessian":[2.895E3,4.84E2,2.411E3,4.57E2,2.7E1,2.35E3,6.1E1,4.43E2,1.4E1,2E1,7E0,2.345E3,5E0,6E0,5.5E1],"tree_param":{"num_deleted":"0","num_feature":"7","num_nodes":"15","size_leaf_vector":"1"}},{"base_weights":[2.0973036E-1,-4.535959E-1,2.699564E1,6.884465E-1,-2.2882666E1,1.0969426E2,2.4470286E0,-8.543878E-2,5.932853E0,4.4483578E1,-3.6673646E0,-1.1926821E0,9.670052E1,-2.6199586E0,1.0728069E1],"categories":[],"categories_nodes":[],"categories_segments":[],"categories_sizes":[],"default_left":[0,0,0,0,0,0,0,0,0,0,0,0,0,0,0],"id":86,"left_children":[1,3,5,7,9,11,13,-1,-1,-1,-1,-1,-1,-1,-1],"loss_changes":[5.1467785E4,7.242921E4,1.4184112E5,2.4351067E5,9.0000406E5,1.6798068E6,1.6798283E5,0E0,0E0,0E0,0E0,0E0,0E0,0E0,0E0],"parents":[2147483647,0,0,1,1,2,2,3,3,4,4,5,5,6,6],"right_children":[2,4,6,8,10,12,14,-1,-1,-1,-1,-1,-1,-1,-1],"split_conditions":[9.513004E1,6.119607E1,5.9093086E1,2.542E3,8.4E1,5.5900818E1,2.737698E2,-8.543878E-2,5.932853E0,4.4483578E1,-3.6673646E0,-1.1926821E0,9.670052E1,-2.6199586E0,1.0728069E1],"split_indices":[1,1,0,6,2,0,0,0,0,0,0,0,0,0,0],"split_type":[0,0,0,0,0,0,0,0,0,0,0,0,0,0,0],"sum_hessian":[2.895E3,2.826E3,6.9E1,2.69E3,1.36E2,1.5E1,5.4E1,2.622E3,6.8E1,3E0,1.33E2,1.4E1,1E0,4.3E1,1.1E1],"tree_param":{"num_deleted":"0","num_feature":"7","num_nodes":"15","size_leaf_vector":"1"}},{"base_weights":[2.4065007E-1,-7.9931337E-1,1.7912075E1,6.2177557E-1,-8.391564E1,4.7031573E2,6.3454494E0,2.9033278E-3,1.3294907E1,-5.8402286E0,-1.24003E1,1.1213207E2,-1.2045945E1,6.4788547E0,-2.0521526E0],"categories":[],"categories_nodes":[],"categories_segments":[],"categories_sizes":[],"default_left":[0,0,0,0,0,0,0,0,0,0,0,0,0,0,0],"id":87,"left_children":[1,3,5,7,9,11,13,-1,-1,-1,-1,-1,-1,-1,-1],"loss_changes":[5.323595E4,3.2321672E5,8.394938E5,2.1106736E5,3.980503E4,1.6734641E6,2.4941947E5,0E0,0E0,0E0,0E0,0E0,0E0,0E0,0E0],"parents":[2147483647,0,0,1,1,2,2,3,3,4,4,5,5,6,6],"right_children":[2,4,6,8,10,12,14,-1,-1,-1,-1,-1,-1,-1,-1],"split_conditions":[6.741754E1,6.119607E1,8.4E1,4.347E3,3E0,3.3179794E1,1.11E2,2.9033278E-3,1.3294907E1,-5.8402286E0,-1.24003E1,1.1213207E2,-1.2045945E1,6.4788547E0,-2.0521526E0],"split_indices":[1,1,2,6,3,0,2,0,0,0,0,0,0,0,0],"split_type":[0,0,0,0,0,0,0,0,0,0,0,0,0,0,0],"sum_hessian":[2.895E3,2.735E3,1.6E2,2.69E3,4.5E1,3E0,1.57E2,2.679E3,1.1E1,2.9E1,1.6E1,1E0,2E0,4.9E1,1.08E2],"tree_param":{"num_deleted":"0","num_feature":"7","num_nodes":"15","size_leaf_vector":"1"}},{"base_weights":[2.5096586E-1,-2.0598423E0,7.8281345E0,-1.1441103E0,-8.241535E1,-4.5373545E0,4.3053406E1,-2.765172E-1,5.761816E0,-5.4648542E0,-2.6782246E1,2.7608488E0,-2.5217726E0,1.5101822E1,-1.552809E0],"categories":[],"categories_nodes":[],"categories_segments":[],"categories_sizes":[],"default_left":[0,0,0,0,0,0,0,0,0,0,0,0,0,0,0],"id":88,"left_children":[1,3,5,7,9,11,13,-1,-1,-1,-1,-1,-1,-1,-1],"loss_changes":[5.07233E4,1.6326242E5,2.9508144E5,2.0934428E5,1.14067984E5,3.3441978E5,1.1154992E6,0E0,0E0,0E0,0E0,0E0,0E0,0E0,0E0],"parents":[2147483647,0,0,1,1,2,2,3,3,4,4,5,5,6,6],"right_children":[2,4,6,8,10,12,14,-1,-1,-1,-1,-1,-1,-1,-1],"split_conditions":[1.21E2,4.665E3,3E0,6.741754E1,1.18E2,1E0,1.28E2,-2.765172E-1,5.761816E0,-5.4648542E0,-2.6782246E1,2.7608488E0,-2.5217726E0,1.5101822E1,-1.552809E0],"split_indices":[2,6,3,1,2,3,2,0,0,0,0,0,0,0,0],"split_type":[0,0,0,0,0,0,0,0,0,0,0,0,0,0,0],"sum_hessian":[2.895E3,2.219E3,6.76E2,2.195E3,2.4E1,5.01E2,1.75E2,2.137E3,5.8E1,2.2E1,2E0,1.96E2,3.05E2,6.1E1,1.14E2],"tree_param":{"num_deleted":"0","num_feature":"7","num_nodes":"15","size_leaf_vector":"1"}},{"base_weights":[2.2138967E-1,4.555459E0,-3.8714004E0,-2.1488929E0,2.3011566E1,-9.951106E-1,-7.616487E1,-1.6095749E0,8.1857294E-1,-2.253721E0,4.080845E0,-2.899502E-1,3.3882507E1,-1.0334857E1,1.3276847E1],"categories":[],"categories_nodes":[],"categories_segments":[],"categories_sizes":[],"default_left":[0,0,0,0,0,0,0,0,0,0,0,0,0,0,0],"id":89,"left_children":[1,3,5,7,9,11,13,-1,-1,-1,-1,-1,-1,-1,-1],"loss_changes":[5.1388145E4,1.7414634E5,3.0975028E5,1.4902372E5,3.0490456E5,9.289964E5,3.374575E5,0E0,0E0,0E0,0E0,0E0,0E0,0E0,0E0],"parents":[2147483647,0,0,1,1,2,2,3,3,4,4,5,5,6,6],"right_children":[2,4,6,8,10,12,14,-1,-1,-1,-1,-1,-1,-1,-1],"split_conditions":[4E0,1.15E2,3.292E3,2E0,1.6411345E1,3.128E3,2.3908252E2,-1.6095749E0,8.1857294E-1,-2.253721E0,4.080845E0,-2.899502E-1,3.3882507E1,-1.0334857E1,1.3276847E1],"split_indices":[5,2,6,5,1,6,0,0,0,0,0,0,0,0,0],"split_type":[0,0,0,0,0,0,0,0,0,0,0,0,0,0,0],"sum_hessian":[2.895E3,1.406E3,1.489E3,1.032E3,3.74E2,1.433E3,5.6E1,4.39E2,5.93E2,1.05E2,2.69E2,1.426E3,7E0,5E1,6E0],"tree_param":{"num_deleted":"0","num_feature":"7","num_nodes":"15","size_leaf_vector":"1"}},{"base_weights":[2.1222366E-1,-3.098449E-1,3.2564514E1,-1.1589379E-1,-1.3832559E2,8.2606895E1,-3.4260077E0,3.2350776E-1,-6.8036205E-1,-1.6959372E1,-2.2260613E0,-2.8399155E0,2.5964853E1],"categories":[],"categories_nodes":[],"categories_segments":[],"categories_sizes":[],"default_left":[0,0,0,0,0,0,0,0,0,0,0,0,0],"id":90,"left_children":[1,3,5,7,9,-1,11,-1,-1,-1,-1,-1,-1],"loss_changes":[4.892386E4,7.6300414E4,1.3165275E6,6.3846777E4,1.0741281E4,0E0,3.0301475E5,0E0,0E0,0E0,0E0,0E0,0E0],"parents":[2147483647,0,0,1,1,2,2,3,3,4,4,6,6],"right_children":[2,4,6,8,10,-1,12,-1,-1,-1,-1,-1,-1],"split_conditions":[1.74E2,1.72E2,1.75E2,6.005395E1,1.4423215E2,8.2606895E1,1.08849625E2,3.2350776E-1,-6.8036205E-1,-1.6959372E1,-2.2260613E0,-2.8399155E0,2.5964853E1],"split_indices":[2,2,2,0,0,0,1,0,0,0,0,0,0],"split_type":[0,0,0,0,0,0,0,0,0,0,0,0,0],"sum_hessian":[2.895E3,2.85E3,4.5E1,2.847E3,3E0,1E0,4.4E1,1.897E3,9.5E2,2E0,1E0,4.1E1,3E0],"tree_param":{"num_deleted":"0","num_feature":"7","num_nodes":"13","size_leaf_vector":"1"}},{"base_weights":[2.2076285E-1,5.1073823E-2,9.8324745E1,1.6543086E-1,-1.6527756E1,-6.069026E0,3.671924E1,-7.5658E-1,2.2405834E-1],"categories":[],"categories_nodes":[],"categories_segments":[],"categories_sizes":[],"default_left":[0,0,0,0,0,0,0,0,0],"id":91,"left_children":[1,3,5,7,-1,-1,-1,-1,-1],"loss_changes":[4.820518E4,5.4704918E4,2.3605494E5,4.6398664E4,0E0,0E0,0E0,0E0,0E0],"parents":[2147483647,0,0,1,1,2,2,3,3],"right_children":[2,4,6,8,-1,-1,-1,-1,-1],"split_conditions":[2.38E2,2.29E2,5.502362E1,1.26854725E1,-1.6527756E1,-6.069026E0,3.671924E1,-7.5658E-1,2.2405834E-1],"split_indices":[2,2,0,0,0,0,0,0,0],"split_type":[0,0,0,0,0,0,0,0,0],"sum_hessian":[2.895E3,2.891E3,4E0,2.89E3,1E0,3E0,1E0,6.11E2,2.279E3],"tree_param":{"num_deleted":"0","num_feature":"7","num_nodes":"9","size_leaf_vector":"1"}},{"base_weights":[2.0337872E-1,1.1047742E0,-1.7549126E1,3.520938E-1,4.97518E1,5.3475957E0,-5.7611004E1,-1.550837E-1,1.3565862E0,7.8465355E1,1.268948E0,-1.5433332E-1,3.0932013E1,-7.204876E0,6.268028E0],"categories":[],"categories_nodes":[],"categories_segments":[],"categories_sizes":[],"default_left":[0,0,0,0,0,0,0,0,0,0,0,0,0,0,0],"id":92,"left_children":[1,3,5,7,9,11,13,-1,-1,-1,-1,-1,-1,-1,-1],"loss_changes":[4.636126E4,1.0093187E5,1.2872808E5,6.8314555E4,1.1340041E6,1.8899617E5,9.308956E4,0E0,0E0,0E0,0E0,0E0,0E0,0E0,0E0],"parents":[2147483647,0,0,1,1,2,2,3,3,4,4,5,5,6,6],"right_children":[2,4,6,8,10,12,14,-1,-1,-1,-1,-1,-1,-1,-1],"split_conditions":[1.6E1,1.74E2,2.661951E1,4.594834E1,1.75E2,2.638704E1,1.473931E2,-1.550837E-1,1.3565862E0,7.8465355E1,1.268948E0,-1.5433332E-1,3.0932013E1,-7.204876E0,6.268028E0],"split_indices":[5,2,1,1,2,1,0,0,0,0,0,0,0,0,0],"split_type":[0,0,0,0,0,0,0,0,0,0,0,0,0,0,0],"sum_hessian":[2.895E3,2.756E3,1.39E2,2.715E3,4.1E1,8.9E1,5E1,2.374E3,3.41E2,1E0,4E1,8.8E1,1E0,4.5E1,5E0],"tree_param":{"num_deleted":"0","num_feature":"7","num_nodes":"15","size_leaf_vector":"1"}},{"base_weights":[2.2129512E-1,3.0835285E0,-5.3263206E0,2.0108755E0,2.579895E2,-1.6703537E1,2.037448E1,1.02468625E-1,1.5741466E1,3.5091512E0,9.091377E1,-1.7747608E0,3.4819874E1,-2.2774923E0,3.5956216E0],"categories":[],"categories_nodes":[],"categories_segments":[],"categories_sizes":[],"default_left":[0,0,0,0,0,0,0,0,0,0,0,0,0,0,0],"id":93,"left_children":[1,3,5,7,9,11,13,-1,-1,-1,-1,-1,-1,-1,-1],"loss_changes":[4.6000766E4,5.2199762E5,2.8865025E5,2.9164106E5,1.129214E6,2.6677288E5,2.0453869E5,0E0,0E0,0E0,0E0,0E0,0E0,0E0,0E0],"parents":[2147483647,0,0,1,1,2,2,3,3,4,4,5,5,6,6],"right_children":[2,4,6,8,10,12,14,-1,-1,-1,-1,-1,-1,-1,-1],"split_conditions":[6.005395E1,1.2072505E2,3E0,5.9412327E1,5.5900818E1,2.38E2,1.9439386E1,1.02468625E-1,1.5741466E1,3.5091512E0,9.091377E1,-1.7747608E0,3.4819874E1,-2.2774923E0,3.5956216E0],"split_indices":[0,1,3,0,0,2,1,0,0,0,0,0,0,0,0],"split_type":[0,0,0,0,0,0,0,0,0,0,0,0,0,0,0],"sum_hessian":[2.895E3,1.91E3,9.85E2,1.903E3,7E0,6.83E2,3.02E2,1.892E3,1.1E1,6E0,1E0,6.82E2,1E0,8E1,2.22E2],"tree_param":{"num_deleted":"0","num_feature":"7","num_nodes":"15","size_leaf_vector":"1"}},{"base_weights":[2.4910615E-1,8.49298E0,-1.537575E0,2.50684E0,1.0538489E2,-9.9039495E-1,-1.0947751E2,8.489404E-1,-1.1855398E1,1.0615154E2,3.581089E0,-1.8567991E-1,2.5504753E1,-4.3303137E0,-1.684347E1],"categories":[],"categories_nodes":[],"categories_segments":[],"categories_sizes":[],"default_left":[0,0,0,0,0,0,0,0,0,0,0,0,0,0,0],"id":94,"left_children":[1,3,5,7,9,11,13,-1,-1,-1,-1,-1,-1,-1,-1],"loss_changes":[4.266875E4,2.9902022E5,1.4051958E5,3.5371812E5,1.9576408E6,5.262162E5,3.9523703E4,0E0,0E0,0E0,0E0,0E0,0E0,0E0,0E0],"parents":[2147483647,0,0,1,1,2,2,3,3,4,4,5,5,6,6],"right_children":[2,4,6,8,10,12,14,-1,-1,-1,-1,-1,-1,-1,-1],"split_conditions":[1E0,7.730019E1,1.84E2,2.454E3,8.4E1,1.74E2,5.588652E0,8.489404E-1,-1.1855398E1,1.0615154E2,3.581089E0,-1.8567991E-1,2.5504753E1,-4.3303137E0,-1.684347E1],"split_indices":[3,1,2,6,2,2,1,0,0,0,0,0,0,0,0],"split_type":[0,0,0,0,0,0,0,0,0,0,0,0,0,0,0],"sum_hessian":[2.895E3,5.15E2,2.38E3,4.86E2,2.9E1,2.369E3,1.1E1,4.64E2,2.2E1,1E0,2.8E1,2.362E3,7E0,6E0,5E0],"tree_param":{"num_deleted":"0","num_feature":"7",